/* Generated by Edge Impulse
 *
 * Permission is hereby granted, free of charge, to any person obtaining a copy
 * of this software and associated documentation files (the "Software"), to deal
 * in the Software without restriction, including without limitation the rights
 * to use, copy, modify, merge, publish, distribute, sublicense, and/or sell
 * copies of the Software, and to permit persons to whom the Software is
 * furnished to do so, subject to the following conditions:
 *
 * The above copyright notice and this permission notice shall be included in
 * all copies or substantial portions of the Software.
 *
 * THE SOFTWARE IS PROVIDED "AS IS", WITHOUT WARRANTY OF ANY KIND, EXPRESS OR
 * IMPLIED, INCLUDING BUT NOT LIMITED TO THE WARRANTIES OF MERCHANTABILITY,
 * FITNESS FOR A PARTICULAR PURPOSE AND NONINFRINGEMENT. IN NO EVENT SHALL THE
 * AUTHORS OR COPYRIGHT HOLDERS BE LIABLE FOR ANY CLAIM, DAMAGES OR OTHER
 * LIABILITY, WHETHER IN AN ACTION OF CONTRACT, TORT OR OTHERWISE, ARISING FROM,
 * OUT OF OR IN CONNECTION WITH THE SOFTWARE OR THE USE OR OTHER DEALINGS IN THE
 * SOFTWARE.
 */
// Generated on: 22.11.2023 07:48:03

#include <stdio.h>
#include <stdlib.h>
#include "edge-impulse-sdk/tensorflow/lite/c/builtin_op_data.h"
#include "edge-impulse-sdk/tensorflow/lite/c/common.h"
#include "edge-impulse-sdk/tensorflow/lite/micro/micro_mutable_op_resolver.h"
#include "edge-impulse-sdk/porting/ei_classifier_porting.h"

#if EI_CLASSIFIER_PRINT_STATE
#if defined(__cplusplus) && EI_C_LINKAGE == 1
extern "C" {
    extern void ei_printf(const char *format, ...);
}
#else
extern void ei_printf(const char *format, ...);
#endif
#endif

#if defined __GNUC__
#define ALIGN(X) __attribute__((aligned(X)))
#elif defined _MSC_VER
#define ALIGN(X) __declspec(align(X))
#elif defined __TASKING__
#define ALIGN(X) __align(X)
#elif defined __ICCARM__
#define ALIGN(x) __attribute__((aligned(x)))
#endif

#ifndef EI_MAX_SCRATCH_BUFFER_COUNT
#ifndef CONFIG_IDF_TARGET_ESP32S3
#define EI_MAX_SCRATCH_BUFFER_COUNT 14
#else
#define EI_MAX_SCRATCH_BUFFER_COUNT 28
#endif // CONFIG_IDF_TARGET_ESP32S3
#endif // EI_MAX_SCRATCH_BUFFER_COUNT

#ifndef EI_MAX_OVERFLOW_BUFFER_COUNT
#define EI_MAX_OVERFLOW_BUFFER_COUNT 10
#endif // EI_MAX_OVERFLOW_BUFFER_COUNT

using namespace tflite;
using namespace tflite::ops;
using namespace tflite::ops::micro;

namespace {

#if defined(EI_CLASSIFIER_ALLOCATION_STATIC_HIMAX) || defined(EI_CLASSIFIER_ALLOCATION_STATIC_HIMAX_GNU)
constexpr int kTensorArenaSize = 368208;
#else
constexpr int kTensorArenaSize = 367184;
#endif

#if defined(EI_CLASSIFIER_ALLOCATION_STATIC)
uint8_t tensor_arena[kTensorArenaSize] ALIGN(16);
#elif defined(EI_CLASSIFIER_ALLOCATION_STATIC_HIMAX)
#pragma Bss(".tensor_arena")
uint8_t tensor_arena[kTensorArenaSize] ALIGN(16);
#pragma Bss()
#elif defined(EI_CLASSIFIER_ALLOCATION_STATIC_HIMAX_GNU)
uint8_t tensor_arena[kTensorArenaSize] ALIGN(16) __attribute__((section(".tensor_arena")));
#else
#define EI_CLASSIFIER_ALLOCATION_HEAP 1
uint8_t* tensor_arena = NULL;
#endif

static uint8_t* tensor_boundary;
static uint8_t* current_location;

template <int SZ, class T> struct TfArray {
  int sz; T elem[SZ];
};
enum used_operators_e {
  OP_CONV_2D, OP_DEPTHWISE_CONV_2D, OP_PAD, OP_ADD, OP_SOFTMAX,  OP_LAST
};
struct TensorInfo_t { // subset of TfLiteTensor used for initialization from constant memory
  TfLiteAllocationType allocation_type;
  TfLiteType type;
  void* data;
  TfLiteIntArray* dims;
  size_t bytes;
  TfLiteQuantization quantization;
};
struct NodeInfo_t { // subset of TfLiteNode used for initialization from constant memory
  struct TfLiteIntArray* inputs;
  struct TfLiteIntArray* outputs;
  void* builtin_data;
  used_operators_e used_op_index;
};

typedef struct {
  TfLiteTensor tensor;
  int16_t index;
} TfLiteTensorWithIndex;

typedef struct {
  TfLiteEvalTensor tensor;
  int16_t index;
} TfLiteEvalTensorWithIndex;

TfLiteContext ctx{};
static const int MAX_TFL_TENSOR_COUNT = 4;
static TfLiteTensorWithIndex tflTensors[MAX_TFL_TENSOR_COUNT];
static const int MAX_TFL_EVAL_COUNT = 4;
static TfLiteEvalTensorWithIndex tflEvalTensors[MAX_TFL_EVAL_COUNT];
TfLiteRegistration registrations[OP_LAST];
TfLiteNode tflNodes[27];

const TfArray<4, int> tensor_dimension0 = { 4, { 1,120,120,3 } };
const TfArray<1, float> quant0_scale = { 1, { 0.0039215688593685627, } };
const TfArray<1, int> quant0_zero = { 1, { -128 } };
const TfLiteAffineQuantization quant0 = { (TfLiteFloatArray*)&quant0_scale, (TfLiteIntArray*)&quant0_zero, 0 };
const ALIGN(16) int32_t tensor_data1[4*2] = { 
  0, 0, 
  0, 1, 
  0, 1, 
  0, 0, 
};
const TfArray<2, int> tensor_dimension1 = { 2, { 4,2 } };
const ALIGN(8) int32_t tensor_data2[3] = { 20252, -29506, -30715, };
const TfArray<1, int> tensor_dimension2 = { 1, { 3 } };
const TfArray<3, float> quant2_scale = { 3, { 0.00024999675224535167, 0.00018980074673891068, 0.00018594613356981426, } };
const TfArray<3, int> quant2_zero = { 3, { 0,0,0 } };
const TfLiteAffineQuantization quant2 = { (TfLiteFloatArray*)&quant2_scale, (TfLiteIntArray*)&quant2_zero, 0 };
const ALIGN(16) int8_t tensor_data3[3*1*1*32] = { 
  /* [0][0][][] */ 86,84,115,-70,-65,10,4,24,-12,68,27,4,-23,-62,69,10,-25,55,61,93,-2,-11,37,-53,-127,61,-40,-22,57,33,-16,6, 
  /* [1][0][][] */ 67,-43,-69,16,-14,127,-35,-8,123,-58,-4,-103,-66,106,47,-53,93,-44,-16,-96,-124,15,114,71,23,31,2,-14,-66,-53,-4,-24, 
  /* [2][0][][] */ -40,76,-81,81,85,-46,-45,118,94,31,127,-34,-101,-90,88,122,-87,-53,4,-117,73,118,-48,-102,101,-53,-18,-122,15,-81,86,-22, 
};
const TfArray<4, int> tensor_dimension3 = { 4, { 3,1,1,32 } };
const TfArray<3, float> quant3_scale = { 3, { 0.0042396159842610359, 0.0032187707256525755, 0.0031534016598016024, } };
const TfArray<3, int> quant3_zero = { 3, { 0,0,0 } };
const TfLiteAffineQuantization quant3 = { (TfLiteFloatArray*)&quant3_scale, (TfLiteIntArray*)&quant3_zero, 0 };
const ALIGN(16) int32_t tensor_data4[32] = { 644, 259, -35, -152, -45, 8, 321, -17, -40, 325, -69, 1320, -257, -204, 225, -41, -64, -370, 92, -310, 601, -187, -4, 108, 327, 5, -437, -250, -398, 31, -475, -377, };
const TfArray<1, int> tensor_dimension4 = { 1, { 32 } };
const TfArray<32, float> quant4_scale = { 32, { 4.5759956265101209e-05, 4.3901814933633432e-05, 4.5447159209288657e-05, 4.2513798689469695e-05, 4.9189024139195681e-05, 3.9454618672607467e-05, 4.6611254219897091e-05, 4.2639127059374005e-05, 4.2680348997237161e-05, 4.3495663703652099e-05, 4.1258597775595263e-05, 4.5626962673850358e-05, 4.2369199945824221e-05, 4.4117645302321762e-05, 4.3487296352395788e-05, 4.3293912312947214e-05, 4.2932992073474452e-05, 4.2389787267893553e-05, 4.0396727854385972e-05, 4.1388360841665417e-05, 4.4842869101557881e-05, 4.7799112508073449e-05, 4.4842046918347478e-05, 4.9447429773863405e-05, 4.7640220145694911e-05, 4.2480503907427192e-05, 4.4381122279446572e-05, 4.049859126098454e-05, 4.2247254896210507e-05, 4.0454022382618859e-05, 4.3368469050619751e-05, 4.2724208469735458e-05, } };
const TfArray<32, int> quant4_zero = { 32, { 0,0,0,0,0,0,0,0,0,0,0,0,0,0,0,0,0,0,0,0,0,0,0,0,0,0,0,0,0,0,0,0 } };
const TfLiteAffineQuantization quant4 = { (TfLiteFloatArray*)&quant4_scale, (TfLiteIntArray*)&quant4_zero, 0 };
const ALIGN(16) int8_t tensor_data5[32*1*1*96] = { 
  /* [0][0][][] */ -30,-31,121,15,94,-2,-73,-89,64,-78,-91,16,49,16,-22,64,-33,-21,-53,-47,-61,-84,20,115,-92,29,86,-26,121,-23,-3,-75,85,-55,-83,80,-79,-69,-88,36,79,-68,-77,116,58,-89,110,-11,24,-40,-56,100,-64,-56,-78,110,17,78,116,-88,-78,107,-41,61,-9,26,79,95,59,108,90,-112,105,-83,30,97,-100,30,-46,39,64,15,87,10,-42,-26,-66,105,32,116,-2,-127,16,72,32,37, 
  /* [1][0][][] */ -63,31,-64,4,-49,80,43,19,85,-97,-100,85,62,-22,31,55,112,-38,45,114,-42,3,41,33,29,-2,-36,112,16,-1,97,-66,46,106,-5,25,50,64,-5,-60,-58,12,-14,-91,-29,37,-28,-44,-24,-83,115,54,23,85,-69,-43,26,96,67,83,-51,108,-78,-99,-66,35,83,44,91,25,22,17,-113,80,-43,50,86,-39,-36,69,-79,83,-45,-127,29,117,-64,-70,84,82,96,-2,85,92,23,-11, 
  /* [2][0][][] */ 36,33,-43,93,-24,-62,81,114,-96,81,-37,107,71,-18,76,-107,-54,-32,49,41,-99,-14,106,20,-21,66,92,31,-60,64,69,81,-75,-24,-87,-106,-75,83,127,-30,-117,-78,10,-4,-85,104,-32,-72,88,33,76,-92,-19,54,14,8,-63,81,-65,8,-25,77,-43,56,86,38,47,78,-99,58,15,-76,28,-78,37,36,-58,-20,3,9,29,-93,-17,-48,-4,-98,-22,-38,78,101,-2,-3,-49,-88,-53,-70, 
  /* [3][0][][] */ 77,-2,30,-30,-96,64,-113,24,51,13,66,-3,114,100,73,1,104,109,-56,31,127,-91,-68,-119,-46,-107,-75,102,41,-72,90,13,-49,-32,-12,-17,-102,-20,16,52,-21,-88,-102,-8,77,32,-43,-87,73,-90,60,8,94,35,99,-89,-111,-114,-111,-67,-84,18,-24,89,52,-33,-64,-29,-26,-74,4,113,26,-107,65,-57,47,95,98,-67,-87,-118,51,99,30,50,-44,-113,-74,50,-10,-100,103,-82,-82,44, 
  /* [4][0][][] */ 49,85,-12,44,-42,-8,30,-5,54,69,-6,34,40,-27,-9,-65,-21,4,-64,24,103,-79,73,24,-46,-1,62,-58,-42,47,-56,-41,64,104,20,-95,-54,0,-127,45,-38,-49,-63,-86,33,95,37,52,23,-31,-2,-56,-87,46,-66,27,40,-78,30,7,18,-83,-22,-49,-42,50,1,-29,29,-86,-86,-63,-42,18,100,38,64,-22,-5,-55,8,-34,-73,-16,2,65,79,6,-93,-60,28,48,35,97,-76,-10, 
  /* [5][0][][] */ 111,-99,79,76,39,-111,29,33,109,-121,-1,-64,26,101,37,42,69,70,-93,117,34,52,17,-30,-116,-57,-13,-115,53,45,24,-102,-32,-2,-75,21,-121,-37,34,26,-93,-56,44,107,-35,30,42,-69,-115,123,14,44,15,9,46,-18,101,58,-54,-47,30,-69,50,-63,-22,113,-34,33,88,6,103,-92,-48,92,-49,-82,17,-57,13,86,122,32,20,127,-84,93,-6,48,72,-103,120,106,-24,33,87,-81, 
  /* [6][0][][] */ 13,-29,123,76,-58,-51,6,77,-12,-55,12,-70,73,59,115,-96,54,3,12,88,-70,-97,116,65,-36,-77,-4,-31,-12,-112,46,-76,-87,-108,-31,-86,18,38,-85,77,82,55,26,3,-102,98,-84,-32,-73,15,-28,-61,76,-54,88,-27,17,-5,-61,127,-89,34,60,-70,-36,64,105,-44,68,-3,-79,-4,62,-67,-56,-18,-73,-73,-44,-23,33,-11,43,-28,-60,-75,-27,-89,80,91,107,9,-41,-63,68,-27, 
  /* [7][0][][] */ 118,66,-48,-44,-93,127,-19,-12,119,1,-98,5,63,-87,48,66,51,21,-2,124,60,35,-8,87,-99,103,45,50,-80,119,-19,40,26,27,70,96,-118,92,-26,-27,99,-74,87,64,54,-1,108,-111,55,-51,-103,-64,-31,91,24,38,119,-90,10,-66,14,-22,84,-110,-73,-55,68,25,-108,22,63,92,87,24,64,52,-58,52,-100,42,94,-36,-11,-74,88,36,-111,96,88,9,78,64,-52,-33,3,-62, 
  /* [8][0][][] */ 17,31,-56,-96,51,43,-75,-42,5,38,45,100,17,-44,-86,-75,-70,101,-75,29,37,-27,80,110,-127,102,51,63,-71,34,-87,123,100,-32,50,-4,112,7,-41,73,85,106,-110,-122,-8,-25,-18,106,23,-85,-54,7,-83,-7,-24,-101,50,114,-88,99,119,31,52,120,-27,-43,-25,103,-78,57,26,2,80,73,8,14,-40,102,83,70,40,81,-105,-79,28,46,75,-36,43,-34,-97,109,-78,-91,-39,70, 
  /* [9][0][][] */ -1,11,126,59,126,-105,-43,-91,47,55,-4,53,-28,-70,-98,-10,17,1,-90,-73,5,110,-89,-98,127,-9,-7,40,-6,-36,-82,99,59,3,33,-17,-54,15,2,-39,48,-57,66,-78,80,25,-104,63,51,-11,-81,-51,97,-77,-71,99,78,-42,-14,23,-90,112,77,-81,-56,7,115,49,-44,112,120,-80,26,77,-106,-78,-72,-92,-34,111,33,43,99,30,-40,-95,55,-16,101,32,-23,106,115,-2,58,-29, 
  /* [10][0][][] */ -66,82,84,-71,-39,115,112,17,40,27,23,-84,111,86,-37,4,-41,87,-104,-60,-15,28,56,-75,6,55,-120,-127,-57,89,-98,-86,88,106,124,71,-56,9,-52,37,-35,123,-116,-46,-100,-60,0,-63,-1,1,46,14,58,24,-61,-31,-106,-16,37,-56,3,63,118,46,119,-81,-103,-22,17,-22,-102,-65,91,61,-85,104,-11,62,68,18,80,-1,65,107,-107,72,104,-26,42,11,-17,-83,-53,-45,-44,-66, 
  /* [11][0][][] */ 112,39,17,119,127,48,75,75,122,122,-54,112,-23,-50,59,-44,-27,-87,79,16,30,105,56,-70,-66,-116,-8,97,96,-35,36,-11,-84,-44,61,58,-31,86,-1,-47,-14,110,-43,46,-25,-41,-86,-59,83,93,108,34,-46,-66,27,21,-36,-50,-5,-49,-80,106,64,-10,48,94,-18,32,63,71,-41,-60,63,95,-60,83,-65,71,-22,107,-99,5,-45,-51,57,-62,31,-28,-83,22,40,-103,-68,-39,-65,-31, 
  /* [12][0][][] */ 7,64,-55,-5,94,-7,-42,35,-84,54,-21,8,-52,6,42,-84,-106,-41,-49,-92,18,-16,12,92,-68,-59,94,-98,89,2,-44,109,-94,-78,-52,10,-5,-84,-17,37,109,33,-119,-45,-29,-92,-48,113,-52,-127,-87,96,43,-7,-93,77,-28,-66,47,66,51,119,-13,47,101,26,-51,114,48,96,43,65,80,109,-24,-7,-45,32,-124,-100,-66,101,38,7,-44,25,49,108,-103,-118,100,35,95,-25,20,70, 
  /* [13][0][][] */ 121,-52,89,79,91,126,72,39,62,-94,13,-12,91,62,54,-39,-112,-63,-79,44,62,-38,112,-54,-63,59,9,7,-91,-66,90,46,56,95,-24,47,-72,-28,9,69,-58,70,-57,15,-44,36,7,-44,40,105,-38,-84,-115,22,96,-80,-44,38,-25,-71,-33,127,-55,35,-33,-53,-103,87,-23,-8,89,-13,-81,52,-77,-44,-99,60,76,-59,62,-98,86,38,-72,-89,93,127,-18,-47,-80,70,106,-48,77,4, 
  /* [14][0][][] */ -52,-103,96,58,76,-15,-9,-116,-80,-29,72,88,-35,-89,-83,-90,-42,-53,5,39,-39,37,2,68,-127,-56,-19,40,-104,-105,-65,50,104,-21,-28,1,103,121,33,-106,0,-106,38,92,73,-106,69,-80,117,44,67,66,98,-16,-3,23,-53,-10,54,85,-18,-81,-17,87,-109,-5,80,-109,-76,-90,-92,89,-11,91,49,-69,65,-105,60,26,57,-38,-110,-23,-105,-82,-124,113,116,15,89,-41,77,115,-6,67, 
  /* [15][0][][] */ 14,-29,-35,77,80,-82,64,-100,64,-15,-70,-15,114,8,-85,-127,87,16,-87,33,57,22,72,110,64,53,44,91,23,67,64,-99,3,13,-56,-10,-81,118,98,-64,21,117,-45,-31,30,-76,-38,-73,-5,-76,7,33,-94,-93,-40,3,73,52,-39,100,-34,-82,-4,95,-39,96,-68,7,-64,0,63,-62,19,-20,67,-112,7,54,107,75,-82,62,-96,-71,-121,-34,-91,35,94,74,-117,-52,62,116,-101,106, 
  /* [16][0][][] */ -55,8,98,-70,46,123,-56,23,43,56,-101,89,-12,-55,-58,-50,112,85,62,79,106,72,-37,48,-30,76,-60,57,-105,29,54,23,-89,71,55,70,-23,56,-58,-64,28,-48,73,98,65,115,112,-27,-53,-104,2,126,-58,107,68,41,24,100,67,18,108,120,50,84,70,24,-45,96,57,107,-36,-20,38,108,51,89,-8,97,-109,-9,27,-86,51,31,22,110,107,23,70,20,-17,127,65,-27,-70,36, 
  /* [17][0][][] */ 28,-119,23,77,-44,-121,-75,-103,36,-96,79,42,94,54,-124,42,25,47,104,108,-103,-21,7,-60,20,61,-87,20,100,-62,-40,70,-40,-31,26,-1,-57,95,-94,-38,-104,-49,-22,-17,0,5,80,-119,79,100,-22,19,-24,73,94,-83,-125,81,-92,-121,25,-103,68,92,-93,-83,36,-112,-120,-10,104,23,8,-127,-73,60,110,-56,35,-66,3,-24,-86,-102,-122,66,74,-42,13,71,-108,-127,-20,89,5,9, 
  /* [18][0][][] */ -101,108,126,-70,-4,-93,-110,27,-8,94,-111,-47,-50,36,70,-60,28,-30,66,-22,102,-44,26,-80,39,-98,-19,122,35,36,5,49,42,-32,-112,-107,-25,35,-10,67,-44,0,-38,3,-117,21,27,1,17,-27,70,33,-110,-14,11,92,-56,33,-16,-122,83,127,11,37,-69,-126,-30,93,74,-68,-76,112,-108,-31,-99,-105,58,63,-2,-83,-58,-11,-34,-67,111,-36,77,71,-118,-82,-66,115,92,-57,51,-11, 
  /* [19][0][][] */ 16,27,77,40,68,-91,96,97,94,-68,26,-16,-101,31,-60,59,72,-111,115,55,-27,80,-60,10,82,-86,26,-71,-98,-126,-70,43,78,-88,31,-5,5,-75,-57,-107,42,-123,-87,7,-92,27,75,-99,-32,35,-45,42,-35,12,2,-14,21,99,-4,-30,53,-54,99,60,-73,-6,-29,-4,-14,53,76,-56,-67,-127,-62,-84,-28,-118,12,110,56,-119,-34,76,-93,-11,6,-8,88,27,-4,61,-37,113,68,-52, 
  /* [20][0][][] */ -13,78,77,101,-70,79,33,75,27,10,-72,-4,-3,101,59,-67,-35,-23,-52,-36,37,-23,-55,-52,83,-80,-90,61,41,7,-36,104,90,62,-6,59,42,-15,-9,-94,-67,-14,-60,-90,-10,-51,-59,124,61,-99,-85,29,67,127,59,13,98,75,103,94,123,-46,-73,-40,-37,-61,-28,17,-82,-58,-53,94,-52,-86,49,27,111,94,117,107,81,23,95,-33,60,113,-2,67,36,95,32,55,41,26,-10,13, 
  /* [21][0][][] */ 84,64,49,-99,66,-79,61,-1,-5,-70,-69,21,13,33,-52,-89,-101,-25,18,-5,99,-50,58,-83,30,-75,-29,51,-4,11,-8,-24,8,18,-88,-106,84,88,-127,-32,-6,6,22,-24,-88,-75,-69,78,-20,-72,1,77,20,63,-86,30,-54,48,-43,98,54,-91,14,-6,63,24,-39,-63,-98,-4,47,72,28,-21,61,49,-102,-34,51,91,9,88,35,-65,19,-87,55,-76,-92,69,79,-107,-39,-57,63,-25, 
  /* [22][0][][] */ 31,-52,-66,-105,80,-53,105,45,-95,88,-74,-93,125,-116,-110,-82,40,83,-127,-53,83,-71,31,30,87,4,-104,105,-51,-71,-57,-103,46,53,12,14,8,-16,-60,-112,2,-12,5,92,54,-110,89,-26,-67,-75,-8,-12,-72,-98,-41,35,-32,-27,-14,-33,96,-70,-72,-100,-80,20,-111,-49,109,107,-22,-7,-61,8,45,-85,42,-50,62,88,107,-111,-77,-106,79,82,96,-29,-56,33,-65,62,8,26,-24,103, 
  /* [23][0][][] */ 65,-68,3,37,76,-95,1,-116,46,-65,78,78,16,-96,12,-28,82,-23,-102,94,82,-75,94,-33,-15,5,76,12,61,40,72,-29,-21,36,7,42,94,-3,-127,7,-86,3,5,-89,-57,-69,106,8,75,-93,-79,-34,52,-57,-46,82,-78,-6,82,42,-101,-69,-33,8,38,39,-108,-94,61,-10,93,-73,3,-19,-43,-82,39,-18,82,107,-37,-48,12,-77,89,14,104,-10,-82,42,85,1,92,-45,-20,80, 
  /* [24][0][][] */ -60,-35,-111,-56,-99,-76,-51,-113,67,100,85,20,127,67,-29,-105,-67,62,12,-23,110,-68,-42,-28,18,-22,78,44,82,83,10,-58,33,28,63,31,-54,-60,17,-6,-49,-74,91,-1,33,-27,57,73,-47,-52,16,29,52,77,73,-48,23,87,26,7,106,-28,57,105,-82,91,-36,-66,-83,45,-47,-4,-19,37,113,87,76,-62,-84,-64,-64,-69,-33,-99,9,74,-4,-82,45,-83,-14,-60,3,43,-72,29, 
  /* [25][0][][] */ -92,-60,-79,-16,93,-54,-109,54,41,-95,-41,45,62,-12,-110,-16,-67,53,30,-119,59,84,-11,-60,38,-42,-112,35,78,-92,40,113,90,-119,68,74,109,-59,-11,-23,-87,94,-112,12,99,40,73,34,-107,111,-84,9,39,-31,-65,7,-30,51,-113,81,105,79,51,41,12,79,-21,-14,-74,-22,-30,-126,32,-116,69,19,65,75,10,20,52,39,-57,82,-74,-49,-102,-92,-31,-44,106,19,-127,-9,-8,-109, 
  /* [26][0][][] */ 58,-116,-36,-23,-98,-8,-17,-27,-109,-127,99,75,-72,-49,3,-18,100,27,-93,-61,12,60,88,5,22,63,7,30,1,15,-92,-1,-25,-61,-98,-98,-76,80,-62,102,-98,95,48,22,-74,70,-40,92,-23,20,-1,97,-7,-45,-9,-105,97,64,47,16,3,-106,71,-16,117,-23,-64,54,-78,70,76,90,75,-85,-82,-5,43,-114,-99,6,-30,77,77,-69,73,-3,-49,14,-83,107,-5,43,-52,105,52,82, 
  /* [27][0][][] */ 11,6,-70,-105,-58,-55,-77,-5,43,100,37,-118,-26,56,83,-33,64,-22,66,-92,-103,8,-34,-28,-81,43,-120,-6,64,26,-39,-14,64,70,-96,-96,-99,-72,-85,90,-104,15,24,14,101,21,68,106,93,69,58,-84,-82,-92,-12,-41,119,-30,-125,-84,-65,-70,-38,52,51,-54,-121,109,47,6,-127,5,59,-58,-10,-95,44,-73,90,109,85,-31,118,-64,-83,-91,-40,28,-55,-9,-33,-61,55,14,87,54, 
  /* [28][0][][] */ 93,-12,80,42,-105,-63,-105,-77,-45,-113,51,64,-77,-93,-4,92,84,106,-72,72,-35,15,-119,-84,-127,75,-92,-66,-77,-75,-11,-25,-113,9,83,63,7,-117,-42,24,97,34,-99,40,-117,-19,5,43,15,-62,-78,-38,-77,18,48,34,55,-22,78,42,-11,-48,-91,-3,51,65,-30,78,-81,23,-113,-50,63,33,-13,-110,-122,-75,-95,38,-84,-99,113,-39,53,-123,57,-92,-112,-77,-39,-64,-46,49,-102,-75, 
  /* [29][0][][] */ 55,62,74,-47,-72,3,-122,31,108,-11,-92,-100,100,-108,-47,-42,-101,106,44,-76,-83,-31,63,10,-18,4,-48,-14,-102,-16,108,-4,52,3,-86,-53,0,108,16,101,50,113,-46,94,0,111,-58,-21,19,-12,55,-104,99,-104,115,45,-98,57,-56,124,-127,119,-104,-61,-63,-66,61,94,98,-92,45,-77,117,81,66,38,118,-58,-29,42,-7,-85,-14,-84,68,122,49,82,-42,101,89,83,-110,12,-7,58, 
  /* [30][0][][] */ 17,-76,-72,31,-97,12,-75,-22,110,-26,-12,-44,-99,15,46,10,-16,25,91,-112,35,-110,-122,2,-113,13,-73,113,-14,-107,-98,-4,-87,-80,-124,-64,4,-29,-11,20,76,-83,-20,85,91,-49,89,47,-80,74,16,-111,93,-59,-22,89,-82,-55,-83,-55,-105,-15,-83,-28,-111,-97,-104,87,-68,104,46,-36,-89,93,27,-92,-58,-81,-85,-64,18,26,-109,-23,-117,16,-109,104,-43,-127,73,53,-34,-14,-1,-73, 
  /* [31][0][][] */ 78,-96,33,103,49,58,-65,-101,-31,-24,-85,-94,116,-127,-53,108,-67,-96,41,44,60,31,-36,102,44,-119,32,38,-78,-77,43,104,14,17,-97,-10,92,-36,-64,-116,56,-73,-33,27,0,-59,-44,19,66,23,93,-35,-112,-62,-87,19,-122,70,2,111,-43,-5,82,-79,66,108,-50,-81,68,-122,-119,8,-102,-48,-1,3,-64,-52,45,111,-82,-47,52,69,52,92,-96,13,13,-58,-86,-60,8,100,-9,-24, 
};
const TfArray<4, int> tensor_dimension5 = { 4, { 32,1,1,96 } };
const TfArray<32, float> quant5_scale = { 32, { 0.0019447981612756848, 0.0018658271292224526, 0.0019315042300149798, 0.0018068363424390554, 0.002090533496811986, 0.0016768212663009763, 0.0019809782970696688, 0.001812162809073925, 0.0018139147432520986, 0.0018485656473785639, 0.0017534904181957245, 0.0019391458481550217, 0.0018006910104304552, 0.0018749999580904841, 0.0018482099985703826, 0.0018399913096800447, 0.0018246520776301622, 0.0018015658715739846, 0.0017168609192594886, 0.00175900524482131, 0.0019058218458667397, 0.0020314622670412064, 0.0019057869212701917, 0.0021015156526118517, 0.0020247092470526695, 0.0018054214306175709, 0.0018861977150663733, 0.0017211900558322668, 0.0017955083167180419, 0.0017192959785461426, 0.0018431599019095302, 0.0018157787853851914, } };
const TfArray<32, int> quant5_zero = { 32, { 0,0,0,0,0,0,0,0,0,0,0,0,0,0,0,0,0,0,0,0,0,0,0,0,0,0,0,0,0,0,0,0 } };
const TfLiteAffineQuantization quant5 = { (TfLiteFloatArray*)&quant5_scale, (TfLiteIntArray*)&quant5_zero, 0 };
const ALIGN(16) int32_t tensor_data6[96] = { -1788, 2896, 7230, 2196, -3349, -3149, 17258, 1529, 2116, -1586, 8487, -282, -5916, 1763, 12769, 5849, 13306, 4312, -3785, -4721, 3570, 27827, 18952, 17156, 1055, 768, 3312, 2433, 2218, -3710, 5917, -2485, -247, 5332, 48, 773, 7839, 4104, -1121, 4570, 6564, 5637, 4277, 9309, 3607, 3357, 1543, 5792, 4721, -5771, -5189, 377, -177, -1411, 1789, -23, 172, -682, -3540, 9439, -850, 1372, -988, -1519, -2949, 5173, 20535, 1667, -1769, 648, 1215, 1878, 1306, -891, 505, 8208, -408, 15189, 15738, -814, 6554, 1412, -471, 996, 10238, 6331, 3330, 1079, 4927, 3386, -238, -6365, 555, -1498, -1435, -1904, };
const TfArray<1, int> tensor_dimension6 = { 1, { 96 } };
const TfArray<96, float> quant6_scale = { 96, { 0.00035361057962290943, 0.00054483744315803051, 0.00033194985007867217, 0.00040570303099229932, 0.00031868016230873764, 0.00046733915223740041, 0.00019253602658864111, 0.00048311342834495008, 0.00028879885212518275, 0.00042824761476367712, 0.00022864868515171111, 0.00026599623379297554, 0.00042604739428497851, 0.0015832027420401573, 0.00024272859445773065, 0.0002008060400839895, 0.00014043995179235935, 0.00033529504435136914, 0.00050703302258625627, 0.00035637625842355192, 0.00017347776156384498, 9.6603303973097354e-05, 0.0001616441149963066, 9.785017027752474e-05, 0.00018513313261792064, 0.0006264527328312397, 0.00089208135614171624, 0.00044340585009194911, 0.00023776425223331898, 0.00052689271979033947, 0.00024879752891138196, 0.00031184963881969452, 0.00020684447372332215, 0.00021745139383710921, 0.00045036981464363635, 0.00032584831933490932, 0.00024376872170250863, 0.00026007814449258149, 0.00048949650954455137, 0.0003813454823102802, 0.00019440795585978776, 0.00045931409113109112, 0.00035229965578764677, 0.00025041445042006671, 0.00053250830387696624, 0.00030018718098290265, 0.00033390981843695045, 0.00037021818570792675, 0.00028843086329288781, 0.00022877697483636439, 0.0003076441353186965, 0.00024140073219314218, 0.0005326451500877738, 0.00021202286006882787, 0.00043649080907925963, 0.00043033630936406553, 0.00059495313325896859, 0.00041542670805938542, 0.00043431215453892946, 0.00019589178555179387, 0.00087424501543864608, 0.0005018634838052094, 0.00027926921029575169, 0.00051920674741268158, 0.00064186187228187919, 0.00037082034396007657, 0.00010647271119523793, 0.00023169032647274435, 0.00065452925628051162, 0.00044910024735145271, 0.00029548027669079602, 0.00026967658777721226, 0.0010167164728045464, 0.0004614240606315434, 0.00034056688309647143, 0.00026427707052789629, 0.00034059907193295658, 0.0001235994859598577, 0.00011577219993341714, 0.00022540234203916043, 0.0002237362350570038, 0.00023269488883670419, 0.00020033313194289804, 0.0002294444857398048, 0.00017963460413739085, 0.00037689495366066694, 0.00068985810503363609, 0.0002713788126129657, 0.0001455597230233252, 0.0006112557603046298, 0.0003037747519556433, 0.00030775580671615899, 0.00037569954292848706, 0.00069606432225555182, 0.00044365230132825673, 0.00022690725745633245, } };
const TfArray<96, int> quant6_zero = { 96, { 0,0,0,0,0,0,0,0,0,0,0,0,0,0,0,0,0,0,0,0,0,0,0,0,0,0,0,0,0,0,0,0,0,0,0,0,0,0,0,0,0,0,0,0,0,0,0,0,0,0,0,0,0,0,0,0,0,0,0,0,0,0,0,0,0,0,0,0,0,0,0,0,0,0,0,0,0,0,0,0,0,0,0,0,0,0,0,0,0,0,0,0,0,0,0,0 } };
const TfLiteAffineQuantization quant6 = { (TfLiteFloatArray*)&quant6_scale, (TfLiteIntArray*)&quant6_zero, 0 };
const ALIGN(16) int8_t tensor_data7[96*1*1*16] = { 
  /* [0][0][][] */ -31,102,2,-127,-40,-25,-34,-74,-28,5,-9,66,35,-53,-26,53, 
  /* [1][0][][] */ -27,18,-69,-7,-31,-39,15,-75,56,59,-67,24,-6,-4,53,-127, 
  /* [2][0][][] */ -15,33,-59,39,34,37,-39,-105,123,-68,-4,-5,-1,127,-100,20, 
  /* [3][0][][] */ 36,-62,13,-103,16,-23,9,4,127,11,90,53,-17,47,15,120, 
  /* [4][0][][] */ -99,61,9,49,2,-12,12,44,-7,6,22,-36,-127,-23,-19,33, 
  /* [5][0][][] */ 3,68,113,-1,11,76,-90,70,-65,75,-37,-49,39,-55,-127,24, 
  /* [6][0][][] */ 63,-60,122,-127,41,-7,-58,114,-82,-98,51,-28,-2,92,-19,84, 
  /* [7][0][][] */ 31,104,-23,-49,84,13,6,-35,127,99,-12,30,17,-15,59,37, 
  /* [8][0][][] */ 20,-92,5,-89,18,-60,14,-76,19,54,65,-13,23,127,81,63, 
  /* [9][0][][] */ 16,-31,2,127,45,-7,35,-45,-49,118,33,-15,-11,-50,-14,-13, 
  /* [10][0][][] */ -17,28,-48,-127,1,5,-1,27,12,-54,5,-42,-2,-44,-13,32, 
  /* [11][0][][] */ 1,15,18,-21,78,-29,85,-65,-92,29,-9,21,7,127,-65,-22, 
  /* [12][0][][] */ 63,-42,-127,-13,23,-85,9,15,1,58,-93,-55,-20,106,4,40, 
  /* [13][0][][] */ -12,12,-22,10,6,-127,-6,21,2,-14,8,-4,8,-12,9,12, 
  /* [14][0][][] */ 13,-23,105,-26,71,12,-127,-86,-9,-35,40,31,8,-60,-26,-42, 
  /* [15][0][][] */ -101,22,-21,-63,-2,7,127,18,-40,37,75,-42,-3,71,72,6, 
  /* [16][0][][] */ 30,68,127,91,-1,17,85,65,-104,3,-85,-21,14,6,-1,-73, 
  /* [17][0][][] */ -31,-99,-13,27,-70,-22,-58,10,-127,-36,7,-52,4,38,51,-32, 
  /* [18][0][][] */ 7,46,11,64,46,11,17,-7,79,38,-23,-28,14,127,48,13, 
  /* [19][0][][] */ 3,-3,34,5,90,22,-85,-63,-104,-67,-43,-127,-25,-47,-4,-25, 
  /* [20][0][][] */ 87,-16,-74,-40,-4,-107,19,15,-70,18,-127,-34,36,9,31,11, 
  /* [21][0][][] */ 56,-14,105,-11,13,23,6,114,38,-51,127,67,-26,126,31,79, 
  /* [22][0][][] */ -21,51,-43,127,-59,8,100,57,-22,20,-30,18,24,9,18,3, 
  /* [23][0][][] */ 92,1,106,-89,58,-3,-17,40,0,8,-11,-43,11,-10,-127,36, 
  /* [24][0][][] */ -127,40,16,-16,6,103,21,-20,1,25,111,-3,-86,19,64,-33, 
  /* [25][0][][] */ 33,26,11,21,8,8,66,-58,-9,-127,-21,-27,-5,-30,11,24, 
  /* [26][0][][] */ -37,-4,6,15,-43,-8,-44,-24,-105,-33,2,-29,20,127,-48,45, 
  /* [27][0][][] */ -1,25,6,61,40,-30,-22,-34,52,5,-29,-4,4,127,-7,18, 
  /* [28][0][][] */ 21,59,67,59,127,-8,19,51,-73,-10,-38,-23,14,92,34,-37, 
  /* [29][0][][] */ 9,-10,6,13,27,-7,-1,31,-25,-7,-24,-127,1,-20,-15,8, 
  /* [30][0][][] */ -28,87,-47,79,-37,-14,51,-127,-39,62,-11,1,60,40,75,83, 
  /* [31][0][][] */ -48,-26,-8,-70,-1,4,-55,-105,30,90,-4,-127,-43,-54,17,18, 
  /* [32][0][][] */ -127,-91,-15,60,49,31,-25,4,-12,-52,-119,42,71,-1,72,83, 
  /* [33][0][][] */ -1,-39,-48,-12,-103,-18,-95,-6,59,10,5,-58,39,-124,127,40, 
  /* [34][0][][] */ 52,-15,59,19,38,12,-53,75,-85,-49,60,16,12,-9,-11,127, 
  /* [35][0][][] */ -34,55,-80,19,-17,-22,47,-127,82,88,-92,-5,13,-1,81,-125, 
  /* [36][0][][] */ -32,37,0,84,27,9,127,-3,-25,13,-38,-23,-30,4,-46,-23, 
  /* [37][0][][] */ 19,-16,17,-56,10,-10,-50,-38,-67,8,0,0,-1,-127,65,-38, 
  /* [38][0][][] */ 38,86,-28,-64,127,-11,34,-50,122,85,-15,-4,-2,-46,73,23, 
  /* [39][0][][] */ -38,75,-7,-127,-19,16,-38,31,42,-83,-29,-31,23,76,37,29, 
  /* [40][0][][] */ 10,-27,15,-78,7,-16,-17,-33,-127,-8,-15,-26,-7,-97,84,-55, 
  /* [41][0][][] */ -5,-22,-48,-22,1,-39,11,-13,-35,13,-52,-11,-127,6,28,37, 
  /* [42][0][][] */ 125,97,-27,-23,-72,-47,-12,-61,16,27,101,-61,-57,56,97,-127, 
  /* [43][0][][] */ -35,117,-64,-1,60,-4,127,-44,69,82,-31,17,32,-118,-90,-58, 
  /* [44][0][][] */ -30,-17,-2,-44,43,-1,-80,-127,-24,-14,0,-4,-10,-29,66,-52, 
  /* [45][0][][] */ -27,54,-127,-40,37,-65,35,-66,21,39,16,-74,28,-40,47,-29, 
  /* [46][0][][] */ 2,6,-19,-88,-17,19,30,-39,-127,-35,2,4,-4,-119,61,-28, 
  /* [47][0][][] */ 7,51,15,-23,122,-22,-28,11,-65,30,-13,19,8,-6,127,-18, 
  /* [48][0][][] */ -127,-90,-23,42,70,6,3,-16,3,-9,-120,53,58,8,98,48, 
  /* [49][0][][] */ 9,20,101,84,122,4,53,38,-115,-41,-28,-67,20,127,15,-66, 
  /* [50][0][][] */ 36,-23,-80,-2,37,-127,-42,-17,-11,-13,8,-34,35,-15,-13,1, 
  /* [51][0][][] */ 12,34,37,10,22,3,0,14,-127,46,0,-117,12,-99,-21,85, 
  /* [52][0][][] */ 13,57,9,55,57,-3,8,59,92,95,-19,-53,36,127,68,23, 
  /* [53][0][][] */ 6,-53,-23,-17,-100,-18,-95,5,40,15,6,-64,36,-127,125,18, 
  /* [54][0][][] */ 38,-7,-35,14,127,82,-113,-31,-69,-3,-24,-71,1,-39,-22,-44, 
  /* [55][0][][] */ 47,-11,9,6,40,-30,-64,-127,-27,-60,-45,16,-10,-23,14,-11, 
  /* [56][0][][] */ -13,10,23,-27,-11,-31,-107,67,-16,127,-10,-19,27,1,1,13, 
  /* [57][0][][] */ 3,21,-40,-6,-49,-38,127,75,-26,22,-12,-12,28,35,94,-14, 
  /* [58][0][][] */ 51,26,-127,39,101,111,-31,57,-100,-42,4,12,-34,32,-5,-31, 
  /* [59][0][][] */ -89,63,102,24,-74,-68,114,127,15,11,26,-10,10,8,76,1, 
  /* [60][0][][] */ 15,2,-57,-5,15,-127,-27,-6,-18,-27,-16,-32,32,-13,6,14, 
  /* [61][0][][] */ 17,-8,24,127,73,21,31,9,-89,1,18,38,-10,22,27,-53, 
  /* [62][0][][] */ -32,127,16,-50,-35,-14,-84,54,-29,-67,-96,-63,0,-98,-56,-36, 
  /* [63][0][][] */ -43,25,-27,127,-75,14,-64,-31,-64,-29,-32,-41,35,65,30,38, 
  /* [64][0][][] */ 3,2,5,50,12,16,-8,72,35,9,-7,-37,-17,-127,51,-6, 
  /* [65][0][][] */ -9,-41,17,-127,41,-37,68,-32,-12,40,5,-125,1,12,1,-51, 
  /* [66][0][][] */ 46,-25,87,-15,15,4,-22,127,25,-60,84,53,-23,117,23,61, 
  /* [67][0][][] */ -6,61,-12,-127,-8,4,-53,39,89,-96,-24,-7,31,87,67,31, 
  /* [68][0][][] */ -45,39,127,4,8,11,5,-3,-44,-26,-13,-34,19,-13,93,-29, 
  /* [69][0][][] */ 127,88,-4,10,-74,-27,-24,-34,13,21,94,-65,-59,67,51,-102, 
  /* [70][0][][] */ 38,12,-64,-3,-40,37,74,127,-38,89,-37,0,19,79,-29,12, 
  /* [71][0][][] */ 15,-7,-7,13,8,-84,-7,27,-34,20,-79,11,-127,-3,49,46, 
  /* [72][0][][] */ 17,15,-127,18,16,12,21,105,-38,-19,8,-3,24,21,-8,6, 
  /* [73][0][][] */ -49,31,38,0,44,-23,-69,-127,14,-79,28,-24,21,-46,27,-8, 
  /* [74][0][][] */ 9,27,32,127,8,-16,-97,85,-83,7,-61,44,22,-124,52,-97, 
  /* [75][0][][] */ 1,19,-53,8,10,-14,4,-6,101,21,-17,1,8,127,-31,5, 
  /* [76][0][][] */ 6,-18,3,25,8,-15,-17,70,23,-25,-17,-127,-10,-5,6,7, 
  /* [77][0][][] */ -6,32,-23,127,-58,13,86,90,0,31,-19,24,-5,-19,-8,-7, 
  /* [78][0][][] */ 28,-2,22,-127,41,-43,-52,33,11,-65,-7,-57,33,124,28,56, 
  /* [79][0][][] */ -7,-102,-87,-64,-95,-11,22,-88,127,12,26,57,15,47,53,-49, 
  /* [80][0][][] */ -37,17,94,-79,5,-6,35,-103,-75,26,-53,-127,36,87,53,-33, 
  /* [81][0][][] */ -39,40,-127,24,65,-125,-18,51,-9,-46,60,-1,25,2,14,-2, 
  /* [82][0][][] */ 127,-3,-1,20,18,-107,-11,22,-12,-8,-96,1,109,11,-10,21, 
  /* [83][0][][] */ -44,86,-105,-83,-36,-6,52,-127,52,35,-38,-122,24,55,39,92, 
  /* [84][0][][] */ -30,15,54,-43,-5,-37,58,-127,-47,37,-16,-59,30,42,79,1, 
  /* [85][0][][] */ -78,121,21,-127,-82,-35,-34,-7,-65,-13,-76,15,3,-9,-86,-22, 
  /* [86][0][][] */ -9,12,-21,1,-27,-22,127,16,-5,-30,-2,1,13,35,67,-20, 
  /* [87][0][][] */ -33,-32,5,-122,10,-30,60,-17,-2,17,-6,-127,-21,5,10,-44, 
  /* [88][0][][] */ 127,-17,44,-9,22,-107,-24,23,-67,40,-115,-65,28,30,84,2, 
  /* [89][0][][] */ 34,-29,-33,-48,34,-20,-33,-2,-41,17,49,-60,127,-14,35,-58, 
  /* [90][0][][] */ 0,-41,40,-45,72,8,-48,90,57,-76,-29,-22,-8,105,8,-127, 
  /* [91][0][][] */ -50,1,-20,-51,12,-8,-24,-90,-1,46,-14,-127,-17,-17,-8,25, 
  /* [92][0][][] */ -29,28,42,19,1,-127,20,1,1,-32,0,-21,5,-20,17,6, 
  /* [93][0][][] */ 42,-23,127,-7,-46,57,23,-23,-15,29,-66,-15,-27,0,35,0, 
  /* [94][0][][] */ 18,7,-10,-20,29,0,-9,-2,-27,-21,20,-52,127,-12,26,-32, 
  /* [95][0][][] */ 127,100,0,38,-88,-10,-57,-7,-27,-15,90,-59,-44,35,69,-79, 
};
const TfArray<4, int> tensor_dimension7 = { 4, { 96,1,1,16 } };
const TfArray<96, float> quant7_scale = { 96, { 0.0007797014550305903, 0.0012013514060527086, 0.00073194014839828014, 0.00089456385467201471, 0.00070268084527924657, 0.0010304697789251804, 0.00042453655623830855, 0.0010652516502887011, 0.0006367933820001781, 0.00094427407020702958, 0.00050416396697983146, 0.000586514244787395, 0.00093942263629287481, 0.0034909178502857685, 0.00053520977962762117, 0.00044277170673012733, 0.00030966618214733899, 0.00073931622318923473, 0.0011179936118423939, 0.00078579969704151154, 0.00038251362275332212, 0.00021300758817233145, 0.00035642075818032026, 0.00021575689606834203, 0.00040821338188834488, 0.0013813107507303357, 0.0019670145120471716, 0.00097769754938781261, 0.00052426353795453906, 0.0011617837008088827, 0.0005485916044563055, 0.0006876197294332087, 0.00045608630171045661, 0.00047947425628080964, 0.00099305284675210714, 0.00071848643710836768, 0.0005375032196752727, 0.00057346507674083114, 0.0010793261462822556, 0.00084085616981610656, 0.00042866411968134344, 0.0010127747664228082, 0.00077681092079728842, 0.0005521568818949163, 0.001174165983684361, 0.00066190434154123068, 0.00073626183439046144, 0.00081632076762616634, 0.00063598202541470528, 0.00050444685621187091, 0.00067834672518074512, 0.00053228187607601285, 0.0011744677321985364, 0.00046750449109822512, 0.00096245005261152983, 0.00094887957675382495, 0.0013118550414219499, 0.00091600429732352495, 0.00095764617435634136, 0.00043193591409362853, 0.0019276859238743782, 0.0011065949220210314, 0.00061578082386404276, 0.0011448364239186049, 0.0014152874937281013, 0.00081764848437160254, 0.00023476935166399926, 0.00051087071187794209, 0.0014432187890633941, 0.00099025352392345667, 0.00065152579918503761, 0.00059462932404130697, 0.0022418315056711435, 0.0010174271883442998, 0.00075094046769663692, 0.00058272358728572726, 0.00075101142283529043, 0.00027253341977484524, 0.00025527446996420622, 0.0004970058798789978, 0.00049333216156810522, 0.00051308574620634317, 0.00044172897469252348, 0.00050591869512572885, 0.0003960892790928483, 0.00083104288205504417, 0.0015211178688332438, 0.00059838272863999009, 0.00032095512142404914, 0.0013478018809109926, 0.00066981487907469273, 0.00067859294358640909, 0.00082840700633823872, 0.0015348023734986782, 0.00097824097611010075, 0.00050032418221235275, } };
const TfArray<96, int> quant7_zero = { 96, { 0,0,0,0,0,0,0,0,0,0,0,0,0,0,0,0,0,0,0,0,0,0,0,0,0,0,0,0,0,0,0,0,0,0,0,0,0,0,0,0,0,0,0,0,0,0,0,0,0,0,0,0,0,0,0,0,0,0,0,0,0,0,0,0,0,0,0,0,0,0,0,0,0,0,0,0,0,0,0,0,0,0,0,0,0,0,0,0,0,0,0,0,0,0,0,0 } };
const TfLiteAffineQuantization quant7 = { (TfLiteFloatArray*)&quant7_scale, (TfLiteIntArray*)&quant7_zero, 0 };
const ALIGN(16) int32_t tensor_data8[16] = { -10050, 18569, -20398, -1528, -10711, 12657, 29099, -54310, 691, 20386, 24850, 15416, -12254, 13855, -8863, 9891, };
const TfArray<1, int> tensor_dimension8 = { 1, { 16 } };
const TfArray<16, float> quant8_scale = { 16, { 0.00076385494321584702, 0.00039287609979510307, 0.00022316091053653508, 0.00019091436115559191, 0.00035614633816294372, 0.00037141356733627617, 0.00036875795922242105, 0.00027989948284812272, 0.0003618028131313622, 0.00026044648257084191, 0.00066298275487497449, 0.00063779018819332123, 0.00038417187170125544, 0.00023555582447443157, 0.00053081830265000463, 0.00054735346930101514, } };
const TfArray<16, int> quant8_zero = { 16, { 0,0,0,0,0,0,0,0,0,0,0,0,0,0,0,0 } };
const TfLiteAffineQuantization quant8 = { (TfLiteFloatArray*)&quant8_scale, (TfLiteIntArray*)&quant8_zero, 0 };
const ALIGN(16) int8_t tensor_data9[16*1*1*96] = { 
  /* [0][0][][] */ -16,-9,-1,-35,13,-11,-38,-1,11,8,-5,6,-11,-6,-31,6,2,3,-3,-8,4,-27,7,6,8,11,-1,127,38,-33,46,-7,4,9,3,2,-12,12,-42,-8,-7,2,6,39,-1,14,18,1,30,5,-6,3,21,-23,-7,77,9,4,-25,-41,-2,20,-3,-21,-45,-61,-21,32,5,5,13,-19,-11,-36,-1,-26,-33,22,1,12,-11,-25,24,23,2,-9,-14,-88,5,-20,7,1,49,-34,-38,-12, 
  /* [1][0][][] */ 56,-77,-84,-62,127,-24,74,23,-25,-89,-52,-33,-3,-10,-50,59,-65,4,38,33,28,32,-7,-54,4,-3,-13,-78,47,-10,-52,24,-13,41,1,6,7,-13,7,14,-27,32,-55,-11,-28,77,17,1,30,-75,13,-49,-13,36,39,13,-43,-30,-19,-34,24,-23,-18,-32,-82,106,-28,-27,-12,-42,-23,15,52,-107,-24,3,30,-36,48,15,11,-36,21,14,-70,43,-24,16,9,-50,-11,16,31,8,36,104, 
  /* [2][0][][] */ -4,65,-85,-7,89,79,21,74,-10,-101,-2,-5,6,4,22,6,7,-26,-35,58,10,8,63,14,62,27,-3,-30,44,0,55,-68,38,32,-15,45,-127,-74,25,22,10,-45,10,-25,7,-23,10,68,-17,29,-17,-13,104,-15,10,56,32,14,21,9,21,31,39,-25,6,-1,-35,4,-42,8,-25,-39,-54,-65,17,61,61,43,24,-8,22,-39,9,-16,-28,25,17,43,-16,31,9,-27,-2,-36,-68,-10, 
  /* [3][0][][] */ 51,20,107,3,44,-30,7,1,-16,-71,26,-37,4,39,34,86,20,0,34,6,116,0,21,10,64,-26,-23,35,20,51,-1,98,-105,10,44,2,-15,-10,-13,43,-78,-24,79,2,12,63,-55,-80,-47,-23,-57,41,11,-127,7,17,-122,88,42,42,11,104,-10,-72,22,69,3,-51,31,-12,8,-67,46,-27,51,-14,6,-15,37,36,-37,-73,20,-28,-15,7,35,57,43,25,26,35,27,115,50,-48, 
  /* [4][0][][] */ 23,1,16,-13,127,32,-4,-31,-49,-60,-35,-12,-51,31,-8,34,17,-102,-44,83,-24,15,34,-16,-8,0,12,-57,16,-6,74,-43,107,14,-30,16,39,34,17,-2,-20,-16,-35,-30,-10,-51,-15,18,56,22,-22,20,11,-40,13,-37,37,-15,-38,33,2,61,60,38,26,66,-26,-17,-54,-3,34,66,18,-69,-54,-32,16,30,89,-33,1,-37,17,-21,-63,13,40,68,-43,35,15,-46,12,8,30,-32, 
  /* [5][0][][] */ 6,-10,-22,7,13,-20,32,-34,-29,-40,-1,11,1,23,-3,9,-7,-6,11,-16,17,19,-38,56,11,-8,7,-101,4,39,24,33,6,0,5,-47,21,31,-3,2,-2,-14,29,-22,-11,1,9,-26,-6,-11,15,-12,8,-32,-4,-56,5,14,-16,11,57,14,-9,44,-4,57,2,61,6,77,5,23,6,9,-3,62,-42,-6,7,21,-15,-11,-1,22,-3,15,-21,127,1,17,-8,-6,0,10,-47,19, 
  /* [6][0][][] */ 40,-80,12,-47,-35,1,31,7,-10,3,-3,-81,-37,-4,-33,48,23,-7,-6,-24,-55,41,23,0,-26,-4,-19,-21,4,26,52,-7,76,17,60,3,-13,-12,21,-112,-15,82,-4,-25,8,-35,-19,8,-3,38,-26,61,-8,-69,-18,-8,17,-72,11,5,-20,57,27,-63,39,-29,7,-36,-6,-22,127,6,-43,10,-21,28,-95,15,10,16,25,32,21,11,-19,-4,27,21,5,-4,37,-26,-10,-12,-38,-8, 
  /* [7][0][][] */ -16,127,52,16,120,55,34,-17,-17,-28,26,-4,-19,29,17,8,13,-27,14,42,27,-36,27,17,-8,16,15,17,9,-24,-1,20,32,-14,-36,3,20,6,-12,88,-47,34,22,9,-15,-14,18,-14,-33,-25,31,16,14,-36,-34,47,30,10,-30,-3,-12,-37,14,-17,-50,68,-27,-74,-5,-19,-1,65,-14,-23,7,18,69,48,41,-23,-46,-26,-9,-15,-10,50,2,4,-18,39,-22,-41,-38,-16,19,-6, 
  /* [8][0][][] */ -8,0,43,26,-127,-29,35,-17,16,87,59,27,-2,12,20,-9,-47,10,16,-11,-53,5,-98,57,16,-33,50,-22,21,19,-1,37,77,-17,3,2,-26,5,13,19,16,-31,34,-1,-48,0,36,4,-80,22,19,36,-44,-45,-20,32,14,-49,-83,-21,8,-29,-29,7,-14,78,-1,-63,24,-16,-46,-13,29,63,59,-14,-39,-33,-25,20,-85,2,1,-3,34,25,48,53,29,-34,49,48,0,1,43,9, 
  /* [9][0][][] */ -3,-104,-6,36,73,86,-45,-11,31,-49,81,117,-11,7,92,-127,6,-19,0,17,-62,-41,15,-16,-33,5,-11,28,-27,15,9,-14,16,1,-97,29,4,35,-20,67,35,-72,-15,48,-13,5,-84,-19,40,45,-21,-69,50,29,-22,-67,-16,97,-50,0,17,-48,-38,120,-99,-3,12,-17,-4,47,-53,-69,52,9,0,30,48,-72,11,-8,-12,-23,17,11,14,-67,29,11,18,-26,-38,29,-66,-3,8,-46, 
  /* [10][0][][] */ -38,-18,-43,-48,-32,-15,65,-29,24,22,26,38,26,-7,-7,-8,-17,14,-33,-31,-11,43,18,22,-5,-12,5,-127,38,-37,61,-33,15,20,-6,0,-10,37,7,-19,13,-44,20,-43,11,-9,28,16,2,37,-27,-18,-24,-25,1,-57,30,8,1,-41,17,9,-11,23,-44,94,-16,-43,12,-44,-9,-22,-40,-8,24,51,-22,42,-23,16,-21,-10,9,24,10,-14,-17,114,-1,-8,11,20,24,-42,43,-41, 
  /* [11][0][][] */ -85,17,2,4,6,-58,-23,6,-42,-1,-6,32,33,18,-23,-21,40,6,-54,-39,6,-3,-15,-5,64,7,51,1,-22,26,-42,13,-10,11,-4,-7,-7,19,20,-3,-16,-3,-2,-3,65,25,61,23,42,40,-15,38,19,-55,28,-6,-66,-9,-48,-41,-12,-7,-1,16,-7,-22,28,-1,22,14,-5,32,-19,20,23,4,-19,72,-122,54,-36,-12,-54,-72,127,12,35,-10,16,48,-22,-58,-16,42,-22,-10, 
  /* [12][0][][] */ -12,-3,-42,-8,73,23,9,-13,-16,15,19,-9,9,-13,28,-7,-38,-13,11,-22,-3,-25,-34,53,-30,41,-20,104,-19,23,-39,3,-14,28,3,28,-25,-27,15,14,3,-17,-4,2,-11,-3,28,17,-1,-15,3,-29,-21,7,-11,-8,-13,-18,20,21,-18,-20,1,51,42,-94,3,57,-31,-127,-6,59,0,4,-2,79,8,-25,3,-5,-1,20,-40,12,11,-9,-3,-54,-17,26,1,2,-35,28,-18,26, 
  /* [13][0][][] */ -72,60,-13,-9,-64,4,-20,10,-54,-19,43,-3,68,10,-27,7,-13,25,-53,-20,2,-4,42,-55,62,24,-13,3,13,-20,-25,-81,-68,-26,5,11,-4,18,30,-22,-40,69,24,4,34,1,2,-8,69,-14,37,62,57,-58,70,-26,-15,45,53,4,13,27,-22,10,12,-16,7,-3,8,4,24,-127,15,-37,-61,6,27,48,-49,-15,70,-19,-14,-24,38,-30,67,18,-18,-12,-32,46,35,-41,-14,9, 
  /* [14][0][][] */ -25,11,-2,-52,41,-1,-4,26,-84,6,9,6,-31,-55,-71,-14,-85,-17,74,19,40,-15,21,-91,-38,17,-47,-14,4,-27,-14,-32,-74,-23,21,12,-16,-16,5,-3,-3,81,-75,-6,-44,13,4,12,127,-32,20,-13,24,59,-96,30,-23,24,-94,7,13,23,43,22,1,24,-3,3,-52,23,64,32,33,-11,-23,22,64,-78,-23,-102,21,-33,11,38,24,-66,-33,6,-46,20,37,45,10,40,13,-18, 
  /* [15][0][][] */ -41,-67,-9,-36,6,15,-4,-53,-14,9,-4,-36,41,-13,46,-8,-83,2,-21,11,-21,1,-63,-40,-8,5,-1,19,-27,-15,63,-80,-14,25,23,4,-10,15,-90,18,27,-61,-4,26,-19,-45,46,26,43,18,-15,-127,-10,45,1,33,27,-5,-14,43,11,4,44,-10,14,-5,-18,0,-18,19,7,34,-37,3,-3,-33,-22,-4,14,5,-9,43,-16,64,-17,-39,-29,-36,-36,58,21,71,-28,-9,-2,-10, 
};
const TfArray<4, int> tensor_dimension9 = { 4, { 16,1,1,96 } };
const TfArray<16, float> quant9_scale = { 16, { 0.032463833689689636, 0.01669723354279995, 0.0094843385741114616, 0.0081138601526618004, 0.015136219561100006, 0.015785075724124908, 0.015672212466597557, 0.01189572736620903, 0.015376619063317776, 0.011068975552916527, 0.028176767751574516, 0.027106082066893578, 0.016327304765582085, 0.010011122561991215, 0.022559776902198792, 0.023262523114681244, } };
const TfArray<16, int> quant9_zero = { 16, { 0,0,0,0,0,0,0,0,0,0,0,0,0,0,0,0 } };
const TfLiteAffineQuantization quant9 = { (TfLiteFloatArray*)&quant9_scale, (TfLiteIntArray*)&quant9_zero, 0 };
const ALIGN(16) int32_t tensor_data10[96] = { 18691, 61057, 76, -134, 14763, -3496, 367, -827, 4530, 11646, -2582, -196, 638, 5025, 4483, -9443, -4010, -1043, -528, 14424, -11590, 15127, -3226, 5284, 26579, -38, -6606, 16588, 14363, -19160, 1893, 22210, 23038, -9612, 3030, 835, -222, -790, 4357, -8170, -5837, -1090, -6743, -297, 30721, -1533, 11745, -1055, -14115, 791, 82, 425, -1471, 16384, -3424, 14964, 17378, 244, 34668, -314, -9347, -830, 893, -83, -1442, 12452, -657, -7197, -2057, 2208, -329, -4624, 1654, 207, -1934, -5514, -508, -1205, 46838, -7621, -6788, -11818, -157, 398, 63167, -12813, -10013, -27312, -6802, 9100, -2471, 36593, 138, -1861, -3038, 452, };
const TfArray<1, int> tensor_dimension10 = { 1, { 96 } };
const TfArray<96, float> quant10_scale = { 96, { 0.00012772346963174641, 9.3919195933267474e-05, 0.00012749980669468641, 0.00023301062174141407, 0.00023717450676485896, 0.00023220475122798234, 4.899367195321247e-05, 9.0649562480393797e-05, 0.00026047058054246008, 0.00020870899606961757, 0.00029581331182271242, 0.00012726306158583611, 0.00026926625287160277, 0.00020793794828932732, 0.00040017438004724681, 0.00018012931104749441, 0.00019804555631708354, 0.00015885753964539617, 0.00020368037803564221, 7.4923213105648756e-05, 6.613721780013293e-05, 3.8330548704834655e-05, 0.0001403707719873637, 0.00013418489834293723, 8.5533945821225643e-05, 9.1254609287716448e-05, 0.0001708639319986105, 0.0001945731055457145, 7.7927637903485447e-05, 0.00047165309661068022, 0.00039526176988147199, 0.00023462472017854452, 0.00012328119191806763, 0.00017719155584927648, 0.00027070724172517657, 0.0005256394506432116, 0.00036387040745466948, 0.00021633510186802596, 0.00024022233264986426, 7.4844443588517606e-05, 0.00023362759384326637, 0.00021958710567560047, 0.00035711535019800067, 6.3987936300691217e-05, 0.00037725959555245936, 9.3058552010916173e-05, 0.00010511425352888182, 0.00031998378108255565, 0.00073146162321791053, 0.00011912572517758235, 0.00042728212429210544, 0.00017552482313476503, 0.00034530131961219013, 0.00016822548059280962, 0.00026043830439448357, 0.00011831720621557906, 0.00015740677190478891, 0.00049652421148493886, 4.8801091907080263e-05, 0.00016270084597636014, 0.00028889800887554884, 0.00035023529198952019, 0.00010974184988299385, 0.00014922846457920969, 0.00013968958228360862, 0.00013990778825245798, 0.00032335318974219263, 0.000301280029816553, 0.00021335287601687014, 0.00016111861623357981, 0.00022423469636123627, 0.00010582375398371369, 0.00028908450622111559, 0.00014928137534298003, 0.00037233685725368559, 0.0003370520134922117, 0.00013502506772056222, 7.3438255640212446e-05, 5.5323940614471212e-05, 0.00016759801656007767, 0.00024820203543640673, 0.0002489723265171051, 0.00015582276682835072, 0.00028901943005621433, 5.6173939810832962e-05, 0.00011941655975533649, 7.4820090958382934e-05, 0.00053249491611495614, 0.00026305791107006371, 0.00013050065899733454, 0.00035847767139784992, 2.7903892259928398e-05, 0.0001618402311578393, 0.00011117586836917326, 0.00031284763826988637, 0.00027678479091264307, } };
const TfArray<96, int> quant10_zero = { 96, { 0,0,0,0,0,0,0,0,0,0,0,0,0,0,0,0,0,0,0,0,0,0,0,0,0,0,0,0,0,0,0,0,0,0,0,0,0,0,0,0,0,0,0,0,0,0,0,0,0,0,0,0,0,0,0,0,0,0,0,0,0,0,0,0,0,0,0,0,0,0,0,0,0,0,0,0,0,0,0,0,0,0,0,0,0,0,0,0,0,0,0,0,0,0,0,0 } };
const TfLiteAffineQuantization quant10 = { (TfLiteFloatArray*)&quant10_scale, (TfLiteIntArray*)&quant10_zero, 0 };
const ALIGN(16) int8_t tensor_data11[1*3*3*96] = { 
  /* [0][0][][] */ -48,-71,-11,127,22,71,76,-58,-14,-19,-15,-4,-30,-1,37,4,-9,-42,26,22,18,-127,127,5,-85,8,50,-29,-127,-127,37,25,15,26,59,-19,-30,-11,30,-9,-12,27,-107,71,25,-68,38,45,-18,52,-25,18,2,-6,17,48,-90,-50,-59,-18,-11,-1,11,38,67,-24,73,15,-9,16,17,127,22,23,24,0,-10,19,127,-3,-13,14,-29,20,127,21,-79,-16,0,-31,-14,-39,1,-24,-15,26, 127,-127,72,106,-43,127,40,-117,71,4,-18,127,127,-99,-12,17,10,127,127,-112,127,-78,82,67,-127,-114,-64,-34,-53,47,-61,-20,-87,51,-127,-84,-43,-14,-54,58,0,127,127,79,-52,-112,-113,-50,-16,-127,43,83,69,-31,46,81,-46,41,-77,-112,-45,-42,-61,67,72,-60,25,31,-82,33,-17,90,115,127,12,20,2,58,-33,50,65,127,127,-23,-9,74,-116,127,-119,-98,6,-127,-89,-127,-37,105, -76,-13,27,-82,15,-25,67,-7,82,-35,-29,19,-19,-5,-8,-9,-9,-16,8,-4,-22,-99,30,-1,-123,95,9,-55,119,50,-16,9,3,14,12,-29,-9,35,19,9,24,11,-119,60,17,-18,38,13,-15,11,-17,4,-9,2,-2,20,-66,7,-34,52,2,39,33,-1,-7,-38,-30,25,8,2,-3,36,9,-25,-4,4,-11,-6,-86,3,-20,-23,-19,3,-111,9,-36,-22,-50,26,-25,-31,30,-26,-14,1, 
  /* [0][1][][] */ -66,-76,71,-36,-48,93,18,127,-51,-22,-1,-116,26,-116,79,33,-2,-58,-16,89,54,-72,47,48,-99,-11,127,-23,-24,63,122,-103,-127,86,-87,-56,-36,32,-29,94,-48,-25,-5,43,-48,127,-23,64,16,96,19,-3,13,-53,28,32,127,121,-74,-83,127,-33,-36,127,71,-37,-16,0,127,40,127,97,-41,103,-5,11,15,14,-32,10,-41,121,-82,110,3,32,-57,30,78,-127,-31,-9,127,-68,-22,2, 68,125,54,-116,127,86,88,37,-127,127,127,-36,-65,-127,-127,127,127,-62,-124,-50,106,93,-123,127,-113,-91,-42,127,-127,109,-127,-127,-89,127,105,127,127,-127,-106,127,-64,-95,109,-127,-127,-35,-127,-127,127,-112,85,42,127,127,127,-127,101,-127,-127,127,19,-78,-127,-98,-127,127,-127,127,-126,-127,-105,-81,-127,-78,127,127,-127,127,-78,127,127,30,-43,-127,59,127,93,46,127,15,127,-3,-68,35,127,-127, -54,-14,-50,38,-57,-97,34,-26,20,-34,-29,92,1,93,14,13,-5,65,-6,127,3,-86,-41,6,-76,103,-71,-20,-67,-17,16,-64,-68,38,3,-17,-29,47,-68,45,127,-4,-40,26,-40,-59,17,44,9,119,-11,6,-38,-71,4,19,95,3,-2,23,-35,127,93,-51,-43,13,37,-11,-79,124,-18,-83,-1,-53,-15,-20,28,16,76,-36,-68,-40,57,14,-47,-18,71,23,14,65,-43,18,-43,97,-26,-5, 
  /* [0][2][][] */ -69,1,-5,-20,13,-43,67,24,56,-28,-37,-2,18,18,-26,2,-7,65,7,1,-53,-83,3,-9,-27,-54,35,-68,90,39,25,25,19,-8,-12,-45,-6,37,-4,0,-14,-5,-67,99,3,31,13,36,-15,-29,11,-20,21,-1,11,15,-70,24,-17,14,15,0,-21,-4,-1,-45,-47,16,-33,15,25,31,12,-19,27,5,18,4,-78,-10,-7,-7,17,14,-127,6,12,-44,-59,-50,-27,-48,9,57,-18,-7, 121,34,-127,-36,-72,-24,37,30,-64,-29,-20,-106,-78,112,-12,39,1,-48,-9,-126,95,-55,-38,0,-109,127,-49,21,-35,-22,-8,-6,-58,17,25,6,-23,-27,127,58,12,-13,68,-36,-38,76,-67,-43,-33,-4,-127,-127,-52,-25,2,39,-64,-8,10,39,-8,-17,10,-47,-54,34,63,-22,115,110,-22,-67,11,-57,3,4,101,4,52,22,14,-95,-50,2,2,7,127,40,-60,40,-18,-110,41,78,-9,26, -55,13,-19,26,15,-68,-127,3,-10,-8,-16,3,15,-27,19,0,-8,-15,6,17,-46,-71,14,1,20,-95,20,4,-50,-40,-6,14,46,-19,-8,-24,-35,6,41,-36,23,-2,-49,-34,2,66,24,16,-9,-2,10,-9,18,6,-3,-5,-62,-14,1,-37,-11,10,85,-10,34,-1,-2,29,0,4,-3,21,-19,17,-1,15,37,1,74,-11,5,-4,-8,-17,73,-1,42,-39,58,41,-16,-52,-7,2,-14,-15, 
};
const TfArray<4, int> tensor_dimension11 = { 4, { 1,3,3,96 } };
const TfArray<96, float> quant11_scale = { 96, { 0.0054282471537590027, 0.0039915656670928001, 0.0054187416099011898, 0.0099029513075947762, 0.010079916566610336, 0.0098687019199132919, 0.0020822309888899326, 0.0038526062853634357, 0.011069999076426029, 0.0088701322674751282, 0.012572064995765686, 0.0054086800664663315, 0.011443815194070339, 0.0088373627513647079, 0.017007410526275635, 0.0076554953120648861, 0.0084169358015060425, 0.0067514451220631599, 0.0086564160883426666, 0.0031842363532632589, 0.0028108316473662853, 0.0016290482599288225, 0.0059657576493918896, 0.0057028583250939846, 0.0036351925227791071, 0.0038783208001405001, 0.0072617172263562679, 0.0082693565636873245, 0.0033119246363639832, 0.020045256242156029, 0.016798624768853188, 0.0099715506657958031, 0.0052394508384168148, 0.0075306408107280731, 0.011505057103931904, 0.022339677438139915, 0.01546449214220047, 0.0091942418366670609, 0.010209448635578156, 0.0031808887142688036, 0.009929172694683075, 0.0093324519693851471, 0.015177402645349503, 0.0027194872964173555, 0.016033532097935677, 0.0039549884386360645, 0.00446735555306077, 0.01359931007027626, 0.031087117269635201, 0.005062843207269907, 0.018159490078687668, 0.0074598048813641071, 0.014675305224955082, 0.0071495827287435532, 0.011068627238273621, 0.0050284811295568943, 0.0066897873766720295, 0.021102279424667358, 0.0020740462932735682, 0.0069147860631346703, 0.01227816566824913, 0.014884999953210354, 0.0046640285290777683, 0.0063422094099223614, 0.0059368070214986801, 0.005946081131696701, 0.013742510229349136, 0.012804401107132435, 0.0090674972161650658, 0.0068475413136184216, 0.0095299743115901947, 0.0044975094497203827, 0.012286091223359108, 0.0063444580882787704, 0.015824316069483757, 0.01432470977306366, 0.0057385652326047421, 0.0031211257446557283, 0.00235126749612391, 0.0071229157038033009, 0.010548586025834084, 0.010581323876976967, 0.0066224676556885242, 0.0122833251953125, 0.0023873923346400261, 0.0050752037204802036, 0.0031798537820577621, 0.022631032392382622, 0.011179961264133453, 0.005546277854591608, 0.015235301107168198, 0.001185915432870388, 0.0068782097660005093, 0.0047249742783606052, 0.013296023942530155, 0.011763353832066059, } };
const TfArray<96, int> quant11_zero = { 96, { 0,0,0,0,0,0,0,0,0,0,0,0,0,0,0,0,0,0,0,0,0,0,0,0,0,0,0,0,0,0,0,0,0,0,0,0,0,0,0,0,0,0,0,0,0,0,0,0,0,0,0,0,0,0,0,0,0,0,0,0,0,0,0,0,0,0,0,0,0,0,0,0,0,0,0,0,0,0,0,0,0,0,0,0,0,0,0,0,0,0,0,0,0,0,0,0 } };
const TfLiteAffineQuantization quant11 = { (TfLiteFloatArray*)&quant11_scale, (TfLiteIntArray*)&quant11_zero, 3 };
const ALIGN(16) int32_t tensor_data12[96] = { 1712, 5985, 14937, 26280, 15832, -2926, -1627, 4903, 28024, -3823, 10803, 4191, 7460, 11971, 31721, 1439, 1954, 5864, 12840, 5683, -227, 564, 11955, -1186, 4049, -34, 12725, 7013, 5539, 36806, 54459, 15387, 6747, -586, 10673, 2846, 1212, 3497, 20987, -825, 15173, 6867, 40505, -3231, 24528, 9076, 5418, 15925, 49975, 8203, -534, 7758, -3812, -313, -2505, 6727, -561, 14481, 5565, 7022, 4910, 14293, 7264, 5678, 8389, 7109, 4829, -5334, 8336, -2774, 3727, 11229, 16019, 5425, -3346, -5192, 6616, 303, 2424, -1007, 12199, 12334, 4876, 12990, 3171, 283, 8575, 74182, 9259, 9158, 5265, -269, 5143, 9092, 3767, 11176, };
const TfArray<1, int> tensor_dimension12 = { 1, { 96 } };
const TfArray<96, float> quant12_scale = { 96, { 0.00023934936325531453, 0.00024568548542447388, 0.00012675303150899708, 8.7292552052531391e-05, 0.0001898048649309203, 0.00035601056879386306, 0.00049324490828439593, 0.00033511492074467242, 8.4288425568956882e-05, 0.00035270772059448063, 0.00025022894260473549, 0.00020263863552827388, 0.00017144768207799643, 0.00019342015730217099, 7.5260562880430371e-05, 0.00039924093289300799, 0.00022911978885531425, 0.00020989723270758986, 0.00017625244800001383, 0.00021370699687395245, 0.00035097400541417301, 0.0004214566433802247, 0.00017102167475968599, 0.00052387977484613657, 0.00064736185595393181, 0.00023842896916903555, 0.00017526955343782902, 0.0001976559724425897, 0.00029816076857969165, 9.532381227472797e-05, 5.2088747906964272e-05, 0.00016021559713408351, 0.00024796643992885947, 0.00035380214103497565, 0.00018909623031504452, 0.0001979363732971251, 0.0004254294908605516, 0.00041885589598678052, 0.00012898475688416511, 0.00071034894790500402, 0.00012415213859640062, 0.00023004703689366579, 6.7519598815124482e-05, 0.00032287847716361284, 0.00013333412061911076, 0.00017149023187812418, 0.00031467198277823627, 0.00017020796076394618, 8.2749371358659118e-05, 0.00025734122027643025, 0.00023267990036401898, 0.00022052726126275957, 0.00028036703588441014, 0.0002825795381795615, 0.00041100356611423194, 0.00016968260752037168, 0.00020913560001645237, 0.00012891004735138267, 0.00036848068702965975, 0.00020965536532457918, 0.00033140424056909978, 9.8965218057855964e-05, 0.00020203327585477382, 0.0001686850591795519, 0.00029564363649114966, 0.00027285877149552107, 0.00026971334591507912, 0.00024800284882076085, 0.00020347000099718571, 0.00024948595091700554, 0.00029020404326729476, 0.00013965665129944682, 0.00012922479072585702, 0.00018863016157411039, 0.0004559667722787708, 0.000259889115113765, 0.0002446201688144356, 0.00038197039975784719, 0.00031771347858011723, 0.00038344974745996296, 0.00016620771202724427, 0.00013251985365059227, 0.0001826317748054862, 0.00014773409930057824, 0.00036665177321992815, 0.00027767822030000389, 0.00027579008019529283, 5.2020564908161759e-05, 0.00015274900943040848, 0.0002466284204274416, 0.00024188055249396712, 0.0004046546237077564, 0.00028855522396042943, 0.00017760538321454078, 0.00029563685529865324, 0.00015154664288274944, } };
const TfArray<96, int> quant12_zero = { 96, { 0,0,0,0,0,0,0,0,0,0,0,0,0,0,0,0,0,0,0,0,0,0,0,0,0,0,0,0,0,0,0,0,0,0,0,0,0,0,0,0,0,0,0,0,0,0,0,0,0,0,0,0,0,0,0,0,0,0,0,0,0,0,0,0,0,0,0,0,0,0,0,0,0,0,0,0,0,0,0,0,0,0,0,0,0,0,0,0,0,0,0,0,0,0,0,0 } };
const TfLiteAffineQuantization quant12 = { (TfLiteFloatArray*)&quant12_scale, (TfLiteIntArray*)&quant12_zero, 0 };
const ALIGN(16) int8_t tensor_data13[96*1*1*16] = { 
  /* [0][0][][] */ 1,104,-46,79,-2,30,18,-6,33,37,-62,118,22,-127,67,-120, 
  /* [1][0][][] */ 28,48,0,-20,39,-12,127,-126,-3,70,-25,-40,-4,-50,26,8, 
  /* [2][0][][] */ -127,35,-22,-21,-5,12,49,97,-22,50,104,-6,-67,41,25,-46, 
  /* [3][0][][] */ -83,89,51,37,-68,59,70,127,33,103,-104,32,34,-74,-88,-72, 
  /* [4][0][][] */ 8,4,34,73,-23,80,7,41,13,-18,5,-8,17,-2,-127,-18, 
  /* [5][0][][] */ -6,-42,53,-18,7,-13,-21,15,-66,84,-40,-127,-22,13,-67,-16, 
  /* [6][0][][] */ -3,8,27,-22,36,70,-60,-78,-15,-6,54,-6,127,-19,-8,-40, 
  /* [7][0][][] */ 23,22,127,-32,-33,-35,16,0,-92,23,-79,-60,12,1,42,-4, 
  /* [8][0][][] */ 16,18,60,64,-60,72,11,37,26,-7,1,-97,-27,5,-127,-73, 
  /* [9][0][][] */ 30,-114,69,44,16,-22,-6,16,127,-6,67,11,-28,20,-107,-30, 
  /* [10][0][][] */ -29,-68,-3,-36,-127,11,3,37,63,82,61,-56,-46,42,93,-2, 
  /* [11][0][][] */ 53,15,17,-93,12,-25,-124,-127,-51,45,-2,-21,17,-16,43,-69, 
  /* [12][0][][] */ -27,11,7,-37,-41,-29,-81,-13,-36,-71,-13,21,24,127,86,43, 
  /* [13][0][][] */ -34,-84,-67,15,-18,-58,-1,-32,38,-1,-3,-15,17,10,127,37, 
  /* [14][0][][] */ -16,-47,44,25,12,44,16,127,39,50,25,-26,29,57,-69,116, 
  /* [15][0][][] */ 17,-34,3,69,19,-3,98,-1,-3,-127,2,-31,4,-22,-10,-34, 
  /* [16][0][][] */ 40,-91,-44,28,17,3,30,-72,127,75,97,-10,-5,79,64,122, 
  /* [17][0][][] */ -81,-42,55,93,73,65,-24,-71,127,-69,8,-55,-15,20,-104,10, 
  /* [18][0][][] */ -10,0,21,21,-91,-14,-13,42,-74,-20,-37,-65,-8,-127,63,-12, 
  /* [19][0][][] */ 51,-68,50,-83,92,25,-100,80,78,-87,72,50,-32,52,50,127, 
  /* [20][0][][] */ 47,-36,62,-70,-9,3,-36,54,-13,-43,101,-5,23,26,-28,127, 
  /* [21][0][][] */ -55,-30,-6,-56,20,-5,-106,-59,-19,72,3,20,-127,-34,44,1, 
  /* [22][0][][] */ 23,-24,30,-19,18,-76,15,-19,-127,43,-6,-38,-27,-15,85,-26, 
  /* [23][0][][] */ 19,6,21,-2,11,7,-13,8,-3,-1,49,-11,127,-5,5,-43, 
  /* [24][0][][] */ -8,11,12,-80,-22,-2,53,15,-43,16,4,-127,11,-126,51,0, 
  /* [25][0][][] */ -106,1,-40,-6,62,-25,-91,-127,3,55,-38,-30,-37,-94,29,-28, 
  /* [26][0][][] */ 49,0,55,-116,127,-39,-19,5,115,-54,45,-25,23,102,-5,76, 
  /* [27][0][][] */ 104,-27,22,-28,-28,-33,-4,-29,-28,11,-127,10,10,-7,-1,33, 
  /* [28][0][][] */ -118,19,-127,-97,39,-7,81,-48,8,44,-20,33,40,-6,-32,51, 
  /* [29][0][][] */ -76,-46,-10,127,-12,12,-1,-38,-21,-10,-92,56,15,-81,40,-35, 
  /* [30][0][][] */ 79,-17,127,-5,47,40,-35,95,-56,-99,55,-35,-3,55,-97,75, 
  /* [31][0][][] */ 7,-89,-3,-54,-5,-59,9,-48,-12,40,107,23,-14,90,72,127, 
  /* [32][0][][] */ -8,87,-25,43,-127,46,-62,-39,-48,-32,12,62,11,74,25,56, 
  /* [33][0][][] */ 30,-18,28,127,26,-7,17,-35,-93,58,67,-12,4,9,19,92, 
  /* [34][0][][] */ 41,7,8,-1,75,-38,-127,-18,-31,84,-30,20,-18,12,-4,8, 
  /* [35][0][][] */ 94,30,-5,4,26,-127,-32,-13,-33,-18,-90,-9,87,30,-19,22, 
  /* [36][0][][] */ 18,-1,-127,4,39,14,-37,18,-34,-22,6,-10,9,7,-14,12, 
  /* [37][0][][] */ -7,-5,127,2,-56,38,30,-69,-18,25,-75,33,40,0,4,5, 
  /* [38][0][][] */ -122,37,1,45,26,93,12,-33,14,-7,127,-34,-30,-6,-13,-26, 
  /* [39][0][][] */ -14,-14,6,32,22,-23,-127,33,2,30,-14,-39,-2,-21,6,0, 
  /* [40][0][][] */ 1,97,-22,127,19,56,64,31,-70,-31,-26,67,20,43,-90,-31, 
  /* [41][0][][] */ 20,15,-30,-35,-53,-9,127,80,-69,72,-43,-4,-1,67,46,-28, 
  /* [42][0][][] */ 4,-65,-30,-42,23,14,-77,57,50,-127,94,41,-15,32,-78,62, 
  /* [43][0][][] */ -79,-6,25,-13,42,0,-84,-70,-19,70,-15,-13,-127,-32,22,-3, 
  /* [44][0][][] */ -4,11,-15,-17,-11,-15,-6,-59,127,-17,26,34,14,83,5,54, 
  /* [45][0][][] */ -78,-72,19,-119,30,1,-18,59,18,-68,-4,-42,17,124,-43,127, 
  /* [46][0][][] */ -40,11,-30,72,-75,-21,-3,-79,-127,31,-35,-12,1,23,9,-26, 
  /* [47][0][][] */ -17,-33,-119,127,14,49,-22,-47,11,66,59,66,-45,-35,42,-32, 
  /* [48][0][][] */ -8,9,34,-127,27,-20,-18,-14,-27,17,48,-8,-1,50,91,24, 
  /* [49][0][][] */ -31,41,4,112,-56,36,-49,-19,28,-51,-127,-42,-7,-20,-79,-110, 
  /* [50][0][][] */ 12,61,30,-116,63,13,-32,56,127,-29,-28,0,5,-30,8,-16, 
  /* [51][0][][] */ -1,-32,15,-21,48,-15,-54,-127,13,-84,-3,12,-8,-12,-3,-7, 
  /* [52][0][][] */ 23,30,-13,29,38,-13,-72,113,-85,127,-42,-40,82,109,8,-39, 
  /* [53][0][][] */ -1,127,6,-79,-31,15,41,-6,-50,-46,-61,69,31,-125,-115,-13, 
  /* [54][0][][] */ 1,4,17,34,52,-29,6,-33,-1,31,-13,-12,-6,127,-36,-14, 
  /* [55][0][][] */ -127,101,86,-24,40,-38,-33,1,-54,32,103,-21,-20,-38,121,-11, 
  /* [56][0][][] */ 75,2,32,-109,83,4,8,33,79,-24,65,127,-14,13,102,44, 
  /* [57][0][][] */ -39,-2,12,77,-32,22,34,127,0,0,8,-12,17,37,6,23, 
  /* [58][0][][] */ 21,127,1,-127,8,34,-4,22,106,-8,16,83,10,-77,37,49, 
  /* [59][0][][] */ 50,54,59,-103,-36,-1,14,-11,-3,27,23,-76,-23,-127,-88,16, 
  /* [60][0][][] */ 49,-13,104,-39,-29,127,36,-26,1,44,-47,0,33,10,33,-14, 
  /* [61][0][][] */ -29,19,-52,-70,-47,3,120,127,-36,54,-15,3,1,80,24,-20, 
  /* [62][0][][] */ -13,-16,-13,-2,-62,21,-60,11,-34,-15,-11,-48,2,-127,80,-11, 
  /* [63][0][][] */ 5,-50,-15,-107,63,12,-121,-127,-56,109,5,34,76,4,35,-43, 
  /* [64][0][][] */ -22,-6,55,48,92,2,-38,-127,41,-118,8,-59,-19,-20,-6,0, 
  /* [65][0][][] */ -127,16,27,-56,7,52,46,-39,-65,31,45,-13,0,12,-17,-20, 
  /* [66][0][][] */ 64,0,69,16,-45,4,-33,36,-44,-7,57,-86,-8,40,-127,-12, 
  /* [67][0][][] */ 57,-23,-27,87,72,-27,-80,-118,42,-127,-64,-20,-85,10,-93,6, 
  /* [68][0][][] */ 9,-28,-83,64,-81,-78,-4,-81,-37,-23,52,-90,-50,75,127,-9, 
  /* [69][0][][] */ -24,34,-56,73,2,-105,33,91,34,9,52,-21,127,38,-32,-8, 
  /* [70][0][][] */ 18,13,-32,-50,-29,1,127,89,-32,51,-20,1,5,47,15,-13, 
  /* [71][0][][] */ 1,-27,-25,-66,27,-7,12,54,-31,-54,-3,-4,25,-127,92,25, 
  /* [72][0][][] */ 44,13,-5,34,34,-42,-42,-127,16,58,-52,19,45,52,32,40, 
  /* [73][0][][] */ -52,-127,-31,-63,-64,-15,35,-19,-18,12,-27,-23,28,-39,67,3, 
  /* [74][0][][] */ -19,28,67,94,-3,-3,-127,93,22,-42,-47,-43,-6,2,-19,1, 
  /* [75][0][][] */ -62,22,-26,9,-11,86,85,127,-8,50,1,-32,-122,65,15,19, 
  /* [76][0][][] */ 36,-31,-30,-13,47,-101,-127,-84,-10,12,-4,-17,64,-21,71,-37, 
  /* [77][0][][] */ -36,-1,-37,-25,-39,-12,-22,-42,127,16,-67,11,-16,23,33,-79, 
  /* [78][0][][] */ -107,-127,-14,73,62,50,-29,20,-16,-80,-110,65,31,-33,96,66, 
  /* [79][0][][] */ 39,-27,22,-71,127,-21,33,10,69,21,-22,41,-5,-59,30,-37, 
  /* [80][0][][] */ -11,-28,51,-93,-23,-22,13,9,-54,-22,-10,-43,23,127,-39,15, 
  /* [81][0][][] */ 12,-39,66,34,-4,70,-54,-65,-3,-28,-36,-70,-10,19,-127,51, 
  /* [82][0][][] */ -95,-10,34,-105,-23,-37,-6,-32,-26,-18,-28,-94,-26,-127,-75,38, 
  /* [83][0][][] */ 1,6,-26,-72,-41,10,1,50,-87,7,11,-111,1,-127,-5,51, 
  /* [84][0][][] */ 127,30,9,30,-71,12,-70,3,-30,-48,117,-20,-105,11,89,-76, 
  /* [85][0][][] */ 1,-22,24,-24,51,-13,-45,127,-73,-106,-75,-33,-21,65,84,-126, 
  /* [86][0][][] */ 11,-7,3,7,-47,56,-34,31,-86,-57,25,-21,-23,-127,-7,28, 
  /* [87][0][][] */ 124,-33,6,-1,-54,-54,9,-5,-7,29,-127,1,31,-33,-2,39, 
  /* [88][0][][] */ 48,43,-31,7,-13,-23,-2,-2,110,34,44,-1,-35,-7,127,-121, 
  /* [89][0][][] */ 52,74,-73,-15,-33,-18,25,-57,58,42,28,-42,-30,10,-26,-127, 
  /* [90][0][][] */ -26,-7,-10,-64,-79,6,127,-40,84,-71,10,-59,59,-26,-40,-5, 
  /* [91][0][][] */ 24,-14,-4,-113,-26,-9,13,-29,-26,33,63,50,18,-24,36,127, 
  /* [92][0][][] */ 25,14,4,21,44,-14,-77,-127,49,-54,7,-19,-48,-7,7,-27, 
  /* [93][0][][] */ 81,-1,35,-122,-49,-14,-42,73,49,-69,82,-19,-31,127,-18,31, 
  /* [94][0][][] */ -100,61,-87,11,61,-127,-27,3,-18,-64,86,-39,4,-9,-30,-10, 
  /* [95][0][][] */ -25,63,34,-127,2,-23,-52,-8,5,-40,-62,-77,-17,12,-61,-2, 
};
const TfArray<4, int> tensor_dimension13 = { 4, { 96,1,1,16 } };
const TfArray<96, float> quant13_scale = { 96, { 0.00067912595113739371, 0.00069710396928712726, 0.00035964697599411011, 0.00024768244475126266, 0.00053854921134188771, 0.0010101385414600372, 0.0013995249755680561, 0.00095084955682978034, 0.00023915858764667064, 0.001000767108052969, 0.00070999545278027654, 0.00057496351655572653, 0.00048646281356923282, 0.00054880714742466807, 0.0002135430695489049, 0.0011327996617183089, 0.00065010070102289319, 0.00059555895859375596, 0.00050009577535092831, 0.00060636870330199599, 0.00099584786221385002, 0.0011958341347053647, 0.00048525407328270376, 0.0014864478725939989, 0.0018368138698861003, 0.00067651440622285008, 0.00049730692990124226, 0.00056082580704241991, 0.00084599643014371395, 0.00027047022012993693, 0.00014779575576540083, 0.00045459310058504343, 0.00070357590448111296, 0.0010038723703473806, 0.00053653854411095381, 0.00056162138935178518, 0.0012071066303178668, 0.001188454800285399, 0.00036597921280190349, 0.0020155324600636959, 0.00035226723412051797, 0.00065273168729618192, 0.00019157900533173233, 0.00091613002587109804, 0.00037832005182281137, 0.00048658356536179781, 0.00089284509886056185, 0.00048294526641257107, 0.00023479170340579003, 0.00073017569957301021, 0.00066020211670547724, 0.00062572042224928737, 0.00079550879308953881, 0.00080178648931905627, 0.0011661747703328729, 0.00048145462642423809, 0.00059339788276702166, 0.00036576724960468709, 0.001045520999468863, 0.00059487269027158618, 0.00094032095512375236, 0.0002808022836688906, 0.00057324586668983102, 0.00047862422070465982, 0.0008388543501496315, 0.00077420496381819248, 0.00076528015779331326, 0.00070367922307923436, 0.00057732244022190571, 0.00070788734592497349, 0.00082342018140479922, 0.00039625947829335928, 0.00036666030064225197, 0.00053521612426266074, 0.0012937525752931833, 0.00073740509105846286, 0.00069408124545589089, 0.0010837964946404099, 0.00090147496666759253, 0.0010879939654842019, 0.00047159503446891904, 0.00037600964424200356, 0.00051819637883454561, 0.00041917827911674976, 0.0010403316700831056, 0.00078787963138893247, 0.00078252225648611784, 0.00014760228805243969, 0.00043340752017684281, 0.00069977942621335387, 0.00068630790337920189, 0.0011481603141874075, 0.00081874185707420111, 0.00050393457058817148, 0.00083883514162153006, 0.00042999594006687403, } };
const TfArray<96, int> quant13_zero = { 96, { 0,0,0,0,0,0,0,0,0,0,0,0,0,0,0,0,0,0,0,0,0,0,0,0,0,0,0,0,0,0,0,0,0,0,0,0,0,0,0,0,0,0,0,0,0,0,0,0,0,0,0,0,0,0,0,0,0,0,0,0,0,0,0,0,0,0,0,0,0,0,0,0,0,0,0,0,0,0,0,0,0,0,0,0,0,0,0,0,0,0,0,0,0,0,0,0 } };
const TfLiteAffineQuantization quant13 = { (TfLiteFloatArray*)&quant13_scale, (TfLiteIntArray*)&quant13_zero, 0 };
const ALIGN(16) int32_t tensor_data14[16] = { -3191, -2769, -11656, 32712, 27323, 4935, -4090, -4989, 20506, 597, 28032, 22973, -11460, 12598, 32064, -28494, };
const TfArray<1, int> tensor_dimension14 = { 1, { 16 } };
const TfArray<16, float> quant14_scale = { 16, { 0.00042765765101648867, 0.00024300116638187319, 0.00029333669226616621, 0.00021531185484491289, 0.00035232969094067812, 0.00034413181128911674, 0.00029881822410970926, 0.00036002291017211974, 0.0002099925623042509, 0.00028358050622045994, 0.00037643327959813178, 0.00068278732942417264, 0.00037329996121115983, 0.00040882875327952206, 0.00045788846909999847, 0.00031342718284577131, } };
const TfArray<16, int> quant14_zero = { 16, { 0,0,0,0,0,0,0,0,0,0,0,0,0,0,0,0 } };
const TfLiteAffineQuantization quant14 = { (TfLiteFloatArray*)&quant14_scale, (TfLiteIntArray*)&quant14_zero, 0 };
const ALIGN(16) int8_t tensor_data15[16*1*1*96] = { 
  /* [0][0][][] */ -7,18,-16,22,39,61,-40,-21,38,-1,8,1,-9,23,24,60,-6,-14,-1,-2,91,-54,10,-25,-24,-41,-45,-102,-10,-8,47,46,117,-4,11,5,2,-33,-14,-4,-33,5,13,-34,0,-22,-10,30,-21,26,0,-16,-37,-13,18,-3,43,23,-26,-23,-62,29,-1,-16,9,7,63,10,2,11,-7,-19,-61,-12,2,-5,-10,-86,-3,-13,36,-17,-57,-42,33,-21,-5,15,-2,5,20,-37,26,17,-8,127, 
  /* [1][0][][] */ 68,-107,49,95,-14,-93,-29,-45,-27,-82,-8,20,10,-65,-42,-71,-101,-19,22,41,-28,-105,-59,33,127,-85,-86,15,-33,112,-14,41,-11,32,-48,13,-32,-11,76,-29,-12,-75,75,-26,-66,10,57,10,32,37,11,-58,66,-68,34,-11,26,12,-35,-107,25,-60,36,-57,-11,-104,57,56,23,37,-36,-14,-103,42,-15,56,32,98,35,-19,27,-5,-68,56,-89,57,-10,72,-39,9,23,15,-6,-38,38,6, 
  /* [2][0][][] */ 29,14,9,-23,9,4,-2,28,54,-19,9,62,-5,6,50,5,-6,-19,4,-8,-22,-45,9,-42,4,-11,-22,25,4,13,101,-47,17,-60,-12,48,19,127,-43,-23,7,-9,-7,31,-35,-44,-51,19,23,32,-37,-30,25,0,-2,-31,-15,12,6,24,5,-2,74,86,6,-69,5,-65,-7,-7,-17,9,-16,2,-19,19,24,57,3,8,14,70,19,-19,0,0,15,13,25,17,3,-42,-27,-2,-6,58, 
  /* [3][0][][] */ -13,-28,-38,35,29,-11,4,-32,-12,8,0,9,4,-20,46,0,45,-41,19,-1,-20,-3,-3,5,-22,18,13,-4,35,-52,47,-16,25,-15,-19,51,-5,0,-21,8,18,-73,24,-36,3,-10,2,0,-127,46,-20,31,-120,-58,-33,-46,37,16,-6,59,-1,21,-1,16,-14,-81,-43,16,57,21,-7,32,-44,7,-5,-45,-38,-60,21,-46,21,-21,16,62,46,64,31,11,28,-4,-9,13,-31,4,-16,-28, 
  /* [4][0][][] */ -7,-38,27,-62,3,-14,-49,7,-26,-44,-33,5,10,76,8,1,47,-15,11,7,-3,37,49,9,-14,-1,13,12,8,-4,-18,-12,-41,20,4,14,33,-12,-6,-16,23,25,-93,-37,28,-12,-7,-4,-1,92,-18,-17,-28,-4,4,-15,1,-30,31,33,6,-4,11,-9,41,-113,14,-23,-44,26,-8,5,-20,4,-21,40,-15,50,65,4,13,-1,127,-49,49,-22,-6,4,67,19,5,28,-22,29,-5,-38, 
  /* [5][0][][] */ -12,1,-3,-8,-2,-20,-5,116,49,-20,-22,-19,-19,32,41,24,-23,-19,-4,-33,-51,-1,-14,-38,9,10,17,79,80,3,54,49,-57,29,3,-2,-54,-50,-29,-19,-28,0,-17,-9,60,18,6,27,5,21,-19,2,-31,-13,0,-9,-11,-29,-1,27,-52,14,-17,-43,5,16,-16,13,-9,21,4,5,25,-2,-1,6,-1,23,14,111,-8,-52,17,25,10,-8,20,-27,7,-12,23,-127,-24,-21,-6,-108, 
  /* [6][0][][] */ -32,2,-5,-63,-10,-43,-35,24,-7,19,-20,-7,33,-55,2,-24,-16,-83,25,34,2,11,-39,33,89,-22,-13,-3,22,-3,15,-16,-40,15,-34,5,11,8,52,36,-18,-29,-65,-16,-15,-21,26,-127,8,53,27,2,9,-1,-6,-37,48,-28,-12,5,9,28,17,10,25,59,47,-12,-39,-22,15,-27,15,4,57,-18,-31,37,7,5,-31,-11,57,-21,-5,33,18,-23,30,5,-42,-6,-30,6,-6,22, 
  /* [7][0][][] */ 19,11,33,-30,-5,14,1,-29,-1,-13,-11,-14,-3,-90,26,10,3,-27,-18,-18,9,-20,-27,-5,-16,-3,9,-16,8,-3,5,4,-3,-7,-6,-16,6,-3,-43,30,13,-14,-14,27,-2,10,-14,64,3,16,-14,-21,-24,5,-5,-54,34,6,2,-2,3,4,-17,-4,-15,47,7,-31,-4,-4,-1,39,-6,-6,-16,11,45,7,-7,-25,11,-37,33,-7,-29,127,0,-3,-33,-23,-6,20,-19,-1,-4,1, 
  /* [8][0][][] */ -67,35,-39,12,41,-17,-12,19,9,59,-46,26,3,44,59,-21,-14,26,-68,21,17,39,-30,10,-44,-16,7,16,57,-83,-16,-6,25,20,22,-4,-22,29,-39,27,19,37,10,-127,-45,0,49,-9,-54,25,-14,60,-107,78,8,-15,8,-13,-18,-12,-1,-39,13,22,-21,39,22,-23,-6,19,39,91,-30,14,37,46,-2,-94,2,-39,-7,-23,22,-5,-46,10,22,-35,2,44,-17,10,52,0,-11,-3, 
  /* [9][0][][] */ 18,-48,-15,-34,14,44,-6,9,32,-21,7,16,-47,-21,-8,29,-4,12,35,-30,-30,8,-11,-38,34,22,21,-10,-21,-47,-33,3,-2,16,16,28,17,47,-49,20,22,12,-13,-93,10,-8,37,-125,-27,-6,5,23,-18,11,-22,-5,-49,42,7,18,19,7,9,28,27,127,17,37,11,-2,9,-13,-11,-15,-29,16,63,-11,16,4,3,-2,15,-57,18,27,-3,-3,-52,41,-30,11,22,14,10,-14, 
  /* [10][0][][] */ 25,50,-18,38,71,-127,-22,-25,2,49,35,9,-14,14,13,-90,10,34,-29,48,-85,4,-31,-17,-79,-19,-68,51,16,17,-8,34,-30,0,35,-14,78,-8,2,-10,-16,84,41,-20,-64,-16,-41,23,-20,-7,-43,-2,-21,-6,-15,-18,19,23,-23,-15,-13,-2,-17,21,19,40,60,28,23,3,51,58,-50,-33,-55,-4,4,15,-7,4,24,-16,-77,-32,67,-58,97,-3,-11,19,25,-4,93,46,-11,-119, 
  /* [11][0][][] */ 42,35,-23,19,-3,19,60,-3,-7,-20,-25,-5,4,5,42,2,-5,-10,-95,-9,1,17,10,-6,-42,-15,-8,0,6,15,-10,-1,1,7,4,28,12,10,-16,21,11,36,61,-109,32,-34,4,-2,-127,12,8,-47,23,27,-20,8,-17,-5,16,2,17,-17,-14,9,-43,62,-25,8,17,-5,21,16,-59,-37,10,38,-8,-38,-47,0,19,-12,89,39,15,-9,-11,-4,1,24,-19,0,6,10,-18,15, 
  /* [12][0][][] */ -34,-10,10,-1,-21,29,10,7,127,2,-14,-1,3,12,-37,-44,24,18,18,86,51,28,-15,-31,12,0,13,-28,-122,5,34,-38,7,-9,-2,-13,16,-8,37,-17,-58,-29,-7,11,5,35,5,1,10,16,-51,9,14,-10,20,0,74,-24,15,13,18,-15,19,-12,-20,30,-38,7,-6,8,-24,-30,20,13,-78,7,26,0,8,-69,-17,1,41,40,-21,-14,-39,-27,4,11,-1,41,-12,-31,13,5, 
  /* [13][0][][] */ 31,-8,-32,35,30,-7,-1,6,-10,1,4,1,11,-14,15,-21,19,-82,-39,19,-11,-16,1,1,8,8,-1,-3,-11,-31,-1,14,-9,10,15,42,16,2,12,19,-8,8,20,43,20,21,-15,-127,18,-4,4,-1,-16,0,23,8,-10,11,18,10,1,21,-10,4,-12,-20,-15,-53,3,17,-2,-39,-18,39,-13,21,-23,5,14,-1,27,-14,-15,21,9,26,14,15,3,-1,20,-8,7,16,-8,-4, 
  /* [14][0][][] */ -107,-60,29,55,30,-20,-34,18,-10,18,0,8,68,3,-127,-2,85,-9,-9,31,-5,-16,26,19,-111,19,34,-6,-42,-69,-25,-3,-8,-3,16,-66,36,41,7,38,8,31,0,-42,14,112,61,52,-94,32,25,38,-43,-3,25,7,-4,16,68,51,38,56,3,51,11,-17,-42,33,12,76,-43,-92,-69,15,-5,43,-16,43,89,7,60,18,40,32,32,13,51,32,21,42,57,-5,-7,24,22,-33, 
  /* [15][0][][] */ 104,-19,43,0,-10,82,31,-23,-12,61,8,10,-82,-15,-13,37,15,51,50,-13,13,13,-81,60,28,2,61,-7,17,49,-52,-85,18,-62,44,7,37,-44,-56,-109,-9,25,2,40,-4,58,-25,-43,108,-58,-55,29,43,-121,67,-109,1,-66,15,17,-127,10,26,15,86,-14,-57,50,-26,72,-21,7,41,35,8,-1,23,-59,67,-3,-14,9,39,90,-33,1,-7,-61,-1,-15,63,-6,-68,55,25,-21, 
};
const TfArray<4, int> tensor_dimension15 = { 4, { 16,1,1,96 } };
const TfArray<16, float> quant15_scale = { 16, { 0.018175449222326279, 0.010327549651265144, 0.012466809712350368, 0.0091507537290453911, 0.014974012039601803, 0.014625601470470428, 0.012699774466454983, 0.015300973318517208, 0.0089246835559606552, 0.012052171863615513, 0.015998413786292076, 0.029018459841609001, 0.015865247696638107, 0.017375221475958824, 0.019460259005427361, 0.013320655561983585, } };
const TfArray<16, int> quant15_zero = { 16, { 0,0,0,0,0,0,0,0,0,0,0,0,0,0,0,0 } };
const TfLiteAffineQuantization quant15 = { (TfLiteFloatArray*)&quant15_scale, (TfLiteIntArray*)&quant15_zero, 0 };
const ALIGN(16) int32_t tensor_data16[96] = { 9460, -9369, 2979, 42485, -1623, -4557, -11089, 2834, -3021, 835, 3455, -1949, 1952, -4325, 6106, -5874, -568, 17265, 25377, 2481, 3644, -1890, -91, 400, 17061, -519, -2100, -3786, -5343, -7638, 5780, -9190, -219, -2129, -581, 10573, 1318, -4092, 21023, 620, -225, 1782, -9863, -7439, -7647, 69578, -73, 17000, 29252, -12448, -612, 7133, 7256, -297, -6307, 2170, -10100, 2065, 1464, -7279, -1621, -1290, -12953, -1516, 1383, 15407, 28780, 22677, -11814, 450, -8491, -811, 47164, 11562, -51, 492, 19273, 34569, -346, -5279, -1411, -7747, 1179, -3199, 801, -325, 1858, -637, 1708, -3163, 266, -1021, -921, -479, 44, 49032, };
const TfArray<1, int> tensor_dimension16 = { 1, { 96 } };
const TfArray<96, float> quant16_scale = { 96, { 0.00019976352632511407, 0.00012755922216456383, 0.00022529234411194921, 4.8631238314555958e-05, 0.00015447243640664965, 0.00016951440193224698, 0.0003340280381962657, 7.53295753384009e-05, 0.00011155762331327423, 0.00035531795583665371, 0.00015496081323362887, 0.000306606205413118, 9.6377763838972896e-05, 0.00045467755990102887, 0.00016305122699122876, 0.0001374573475914076, 0.00010924049274763092, 0.00031762014259584248, 6.0083701100666076e-05, 0.00020020263036713004, 4.1576484363758937e-05, 0.0001857904571807012, 0.00014983746223151684, 0.0003399128036107868, 0.000209501275094226, 0.00027404582942835987, 0.00012418134429026395, 0.00019520614296197891, 0.00010691840725485235, 0.00010965512774419039, 0.00013747264165431261, 0.00018298196664545685, 0.00013506978575605899, 9.512849646853283e-05, 0.00020249153021723032, 0.00021972689137328416, 0.00044123220141045749, 0.00012801436241716146, 6.7735018092207611e-05, 0.00015193679428193718, 0.00020181400759611279, 0.0003283278492745012, 0.00037474851706065238, 0.00016926928947214037, 0.00016735165263526142, 5.3942192607792094e-05, 0.00022275085211731493, 0.00019694807997439057, 9.0113375335931778e-05, 0.00020253279944881797, 0.00015415444795507938, 0.00017899942758958787, 0.00023584018344990909, 0.00028266929439269006, 0.0002894396020565182, 0.00047280671424232423, 0.0004260717541910708, 0.00021277944324538112, 0.00010906028910540044, 8.0456164141651243e-05, 0.00032332187402062118, 0.00013123983808327466, 0.000272424949798733, 0.00013004867651034147, 0.00019195341155864298, 0.00018883583834394813, 9.1726957180071622e-05, 7.9825411376077682e-05, 0.00032708802609704435, 0.00023943131964188069, 0.00021792012557853013, 0.00012853372027166188, 0.00012219281052239239, 0.00016458562458865345, 0.00015537906438112259, 0.00024513452081009746, 0.00053701206343248487, 5.4487674788106233e-05, 0.00027386832516640425, 0.00035570817999541759, 0.00015793656348250806, 0.00026550077018328011, 0.00010161216778215021, 0.00017124423175118864, 0.00013623081031255424, 9.5495437562931329e-05, 0.00013619294622913003, 0.0001773783442331478, 0.0002084646257571876, 0.000110873173980508, 0.00021043099695816636, 0.00011018665827577934, 0.00015127698134165257, 0.000455867761047557, 0.027724906802177429, 8.054689533310011e-05, } };
const TfArray<96, int> quant16_zero = { 96, { 0,0,0,0,0,0,0,0,0,0,0,0,0,0,0,0,0,0,0,0,0,0,0,0,0,0,0,0,0,0,0,0,0,0,0,0,0,0,0,0,0,0,0,0,0,0,0,0,0,0,0,0,0,0,0,0,0,0,0,0,0,0,0,0,0,0,0,0,0,0,0,0,0,0,0,0,0,0,0,0,0,0,0,0,0,0,0,0,0,0,0,0,0,0,0,0 } };
const TfLiteAffineQuantization quant16 = { (TfLiteFloatArray*)&quant16_scale, (TfLiteIntArray*)&quant16_zero, 0 };
const ALIGN(16) int8_t tensor_data17[1*3*3*96] = { 
  /* [0][0][][] */ -17,6,-19,104,-17,21,-61,-53,18,-6,98,-9,3,-9,-4,53,5,17,-35,4,73,2,32,-35,3,18,45,47,21,13,23,49,-6,27,10,-14,4,49,-63,-26,20,9,28,18,-85,-57,26,-5,-12,-19,-7,-7,49,6,-8,1,-3,-35,28,-31,28,-2,127,27,-13,-11,10,-55,66,36,2,-5,78,-32,69,5,17,-127,29,64,0,14,127,-14,37,29,-27,-19,34,-7,-15,81,1,20,-2,14, -48,12,-8,11,51,-8,-10,-127,37,13,-127,-5,-18,-13,5,92,17,-30,-15,-15,77,-97,127,25,-61,-31,-104,-16,26,36,-49,18,120,12,-14,0,-24,127,-67,-127,8,-19,-29,15,46,-127,127,-44,-77,51,50,6,39,-63,32,56,36,42,-98,85,127,35,4,-20,42,-38,-97,-2,37,-30,-17,50,-47,-48,106,-3,-29,-61,-34,64,-68,62,-17,8,-11,48,55,-41,-28,52,-13,72,-127,-31,23,-127, 1,-4,-22,-72,7,20,38,22,-4,-2,3,62,0,-12,-10,5,-13,18,-13,19,5,24,24,-33,1,-30,11,11,-8,5,45,-79,44,17,9,-22,11,5,-34,-20,8,4,-15,9,23,-35,20,1,6,-7,5,-6,5,6,-4,8,-6,44,8,-3,11,-18,2,-16,-27,-18,30,-52,-107,-8,42,-18,-127,-24,-11,16,10,-11,5,11,-14,22,-38,-4,-41,22,27,37,-24,-17,24,-11,21,6,-2,-45, 
  /* [0][1][][] */ -40,58,-17,38,-86,-15,-9,-44,25,96,-45,-22,-32,-25,-7,63,127,-25,-95,-13,60,-127,-29,15,-35,-46,-126,-4,37,36,-50,28,-127,-75,-57,4,66,-2,-51,47,-19,86,2,-2,34,-51,-12,-31,127,42,-3,20,44,10,-35,-17,32,9,-123,127,-36,-87,21,127,-59,-36,-86,126,-37,127,-19,54,-33,-54,38,9,-36,-71,127,47,127,35,4,-1,127,29,-101,47,-38,-35,-102,40,98,101,28,-60, 127,127,127,127,-46,-127,127,24,127,-127,16,-127,-109,127,127,127,-16,-127,-62,-127,127,22,-66,127,127,127,-54,-127,127,127,-127,127,-9,-127,-123,127,-127,-44,91,108,-127,-127,127,127,127,-117,-108,127,-14,127,-127,-127,-127,127,127,-127,127,-127,-41,41,-107,-27,-68,-67,127,127,-70,127,127,-108,-127,127,-40,127,-127,-127,-127,123,-76,127,-44,127,76,127,-38,-127,-27,-106,-127,-127,-22,-127,-21,-127,-127,118, -23,65,-37,3,127,73,-20,49,4,23,-13,-5,-27,-30,-12,-6,-104,-22,-127,39,33,75,-12,-118,-34,-40,127,72,9,36,72,8,125,-47,127,-3,56,6,-90,14,35,24,-22,0,-22,-55,-12,-41,81,17,-11,39,-6,-4,-72,-14,26,20,127,-91,2,127,0,-35,-109,-28,-74,100,14,-18,115,23,-18,-55,12,47,-29,-8,-44,-3,-47,8,46,24,-90,34,127,-46,32,-22,127,-10,-112,34,33,17, 
  /* [0][2][][] */ -4,-37,-20,-59,-5,14,41,32,-2,10,-21,51,23,-34,-8,6,41,3,8,23,-9,29,-16,-26,1,-23,11,3,-9,-7,48,-75,-36,67,-27,-25,31,-34,-67,16,10,9,-33,18,13,-80,-12,0,-9,6,18,-8,7,1,-20,7,0,44,-48,34,-5,-12,6,17,-6,-10,22,-55,-57,10,-22,-13,-115,-32,1,18,13,-13,56,18,22,22,-42,16,12,25,-21,10,4,25,22,-4,21,40,-7,-30, -27,-9,-26,25,-45,78,-24,66,5,-6,53,-12,127,-6,-18,-17,-1,-40,-61,24,-20,77,-44,-113,-47,-46,104,69,13,45,53,-2,-123,64,-14,-22,-28,-26,-127,-4,44,-13,-15,36,-26,-47,-18,-47,-61,28,69,24,-12,-81,31,53,19,25,75,-55,20,-58,-8,1,19,-26,-127,-56,-11,-27,-60,22,38,-46,-29,-7,-46,22,-56,1,49,34,16,11,5,61,-95,127,15,127,-31,-18,116,-21,46,81, -8,-31,-25,29,12,66,-42,13,3,-6,0,13,11,-49,-9,-13,-44,-4,14,20,-22,5,-20,4,-3,20,0,51,-2,-6,33,28,17,44,19,-22,-6,-25,-32,8,11,-11,21,8,-74,-35,-13,5,-2,-14,-1,-5,-9,8,-15,-5,0,-49,13,-29,-21,49,8,-28,-10,-2,37,-56,46,6,55,-22,30,-55,-17,22,10,10,-5,22,-31,31,88,-13,-18,53,40,-7,108,12,2,-18,12,-22,-6,-52, 
};
const TfArray<4, int> tensor_dimension17 = { 4, { 1,3,3,96 } };
const TfArray<96, float> quant17_scale = { 96, { 0.0084899496287107468, 0.0054212668910622597, 0.0095749245956540108, 0.0020668276119977236, 0.0065650786273181438, 0.007204362191259861, 0.014196191914379597, 0.003201507031917572, 0.0047411988489329815, 0.015101012773811817, 0.0065858345478773117, 0.0130307637155056, 0.0040960549376904964, 0.019323796033859253, 0.0069296769797801971, 0.0058419373817741871, 0.0046427207998931408, 0.013498855754733086, 0.0025535572785884142, 0.0085086114704608917, 0.0017670005327090621, 0.0078960945829749107, 0.0063680917955935001, 0.01444629393517971, 0.0089038042351603508, 0.01164694782346487, 0.0052777072414755821, 0.0082962606102228165, 0.004544032271951437, 0.0046603428199887276, 0.0058425874449312687, 0.0077767334878444672, 0.0057404660619795322, 0.0040429611690342426, 0.0086058899760246277, 0.0093383928760886192, 0.018752368167042732, 0.0054406099952757359, 0.0028787381015717983, 0.0064573138952255249, 0.0085770953446626663, 0.013953933492302895, 0.015926811844110489, 0.0071939448826014996, 0.0071124453097581863, 0.0022925431840121746, 0.0094669107347726822, 0.0083702933043241501, 0.0038298184517771006, 0.0086076436564326286, 0.0065515637397766113, 0.0076074753887951374, 0.010023207403719425, 0.012013444676995277, 0.012301182374358177, 0.020094284787774086, 0.018108049407601357, 0.0090431263670325279, 0.0046350620687007904, 0.0034193869214504957, 0.013741179369390011, 0.0055776927620172501, 0.011578060686588287, 0.0055270683951675892, 0.0081580197438597679, 0.0080255232751369476, 0.0038983954582363367, 0.0033925799652934074, 0.0139012411236763, 0.010175830684602261, 0.009261605329811573, 0.0054626832716166973, 0.0051931943744421005, 0.0069948886521160603, 0.00660361023619771, 0.010418216697871685, 0.022823013365268707, 0.0023157261312007904, 0.01163940317928791, 0.01511759776622057, 0.0067123039625585079, 0.011283782310783863, 0.004318517167121172, 0.0072778793983161449, 0.0057898093946278095, 0.0040585561655461788, 0.005788200069218874, 0.0075385794043540955, 0.0088597461581230164, 0.0047121099196374416, 0.0089433174580335617, 0.0046829329803586006, 0.0064292717725038528, 0.019374379888176918, 1.1783084869384766, 0.0034232430625706911, } };
const TfArray<96, int> quant17_zero = { 96, { 0,0,0,0,0,0,0,0,0,0,0,0,0,0,0,0,0,0,0,0,0,0,0,0,0,0,0,0,0,0,0,0,0,0,0,0,0,0,0,0,0,0,0,0,0,0,0,0,0,0,0,0,0,0,0,0,0,0,0,0,0,0,0,0,0,0,0,0,0,0,0,0,0,0,0,0,0,0,0,0,0,0,0,0,0,0,0,0,0,0,0,0,0,0,0,0 } };
const TfLiteAffineQuantization quant17 = { (TfLiteFloatArray*)&quant17_scale, (TfLiteIntArray*)&quant17_zero, 3 };
const ALIGN(16) int32_t tensor_data18[96] = { 14195, 1011, 7197, -631, 4626, 5057, 13774, 5350, -1091, 13549, 5282, 1246, 7632, 33807, -195, -1872, 9829, 9870, 1390, -96, -593, 13179, 4685, 3227, 6526, 5477, 4038, 4945, 50, -13, 5777, 8665, 14559, 1332, 7524, -831, 19192, 7892, 871, 4227, 712, 10093, 9560, 4108, 2718, 12655, 14026, 6189, 4569, 2995, 288, -604, 17584, 6358, 6860, 14274, -280, 7138, 2464, 3763, 12279, 4904, 2453, 5157, 5464, 4209, 5478, -727, 15992, 7479, 9462, -1159, -1460, 3530, 1390, 3019, 20492, 12355, 11252, -2340, 5832, -4461, -1535, 608, 5398, 4039, 6261, 3646, 10679, 4206, 7811, 3627, 16175, 17076, -10810, 12843, };
const TfArray<1, int> tensor_dimension18 = { 1, { 96 } };
const TfArray<96, float> quant18_scale = { 96, { 0.00018188920512329787, 0.00035395639133639634, 0.00018536038987804204, 0.00092642800882458687, 0.00034694542409852147, 0.00018120819004252553, 0.00022589167929254472, 0.00065842911135405302, 0.00040583862573839724, 0.00013336300617083907, 0.00027644107467494905, 0.00064657401526346803, 0.00036407102015800774, 0.00014178469427861273, 0.00037457043072208762, 0.00038035528268665075, 0.000226162577746436, 0.00023811311984900385, 0.00030535488622263074, 0.00095039879670366645, 0.00038131567998789251, 0.00018915331747848541, 0.00031908709206618369, 0.00024800334358587861, 0.00027341788518242538, 0.00037900981260463595, 0.00034618659992702305, 0.0001885702513391152, 0.00079524482134729624, 0.00036583223845809698, 0.00024968487559817731, 0.00021895756071899086, 0.00013700348790735006, 0.0008032206678763032, 0.00022349557548295707, 0.00038751651300117373, 0.00011831581650767475, 0.000331358693074435, 0.00059867574600502849, 0.00022757271653972566, 0.00071510369889438152, 0.00018448522314429283, 0.00022330910724122077, 0.00017841740918811411, 0.00041252587107010186, 0.0002596029662527144, 0.00020347992540337145, 0.00023922846594359726, 0.00034408131614327431, 0.00028593034949153662, 0.00045950268395245075, 0.0010739690624177456, 0.00015167689707595855, 0.000249737553531304, 0.00033483986044302583, 0.00013048223627265543, 0.00039368719444610178, 0.00024702431983314455, 0.00032280426239594817, 0.00043549595284275711, 0.00013769013457931578, 0.00028407174977473915, 0.00041028967825695872, 0.00053528003627434373, 0.00018876005196943879, 0.00026819293270818889, 0.0003540690231602639, 0.00046747323358431458, 0.00016768716159276664, 0.00015398988034576178, 0.00020869827130809426, 0.00041822707862593234, 0.00027768820291385055, 0.00036707133403979242, 0.00030083119054324925, 0.0004168758459854871, 0.00011665876809274778, 0.0003634069871623069, 0.00014844114775769413, 0.00051553105004131794, 0.00018697147606872022, 0.00046803508303128183, 0.00023736176081001759, 0.00046866250340826809, 0.00029602475115098059, 0.00038553372723981738, 0.00026318209711462259, 0.00038135627983137965, 0.00015968571824487299, 0.00038145971484482288, 0.00017828043201006949, 0.00046852996456436813, 0.00013190886238589883, 0.00016122320084832609, 0.00027214406873099506, 0.00025595416082069278, } };
const TfArray<96, int> quant18_zero = { 96, { 0,0,0,0,0,0,0,0,0,0,0,0,0,0,0,0,0,0,0,0,0,0,0,0,0,0,0,0,0,0,0,0,0,0,0,0,0,0,0,0,0,0,0,0,0,0,0,0,0,0,0,0,0,0,0,0,0,0,0,0,0,0,0,0,0,0,0,0,0,0,0,0,0,0,0,0,0,0,0,0,0,0,0,0,0,0,0,0,0,0,0,0,0,0,0,0 } };
const TfLiteAffineQuantization quant18 = { (TfLiteFloatArray*)&quant18_scale, (TfLiteIntArray*)&quant18_zero, 0 };
const ALIGN(16) int8_t tensor_data19[96*1*1*16] = { 
  /* [0][0][][] */ 30,-11,127,94,72,-13,30,-30,104,-10,-27,-66,16,78,-31,-82, 
  /* [1][0][][] */ 46,55,-8,-18,94,-23,-19,22,49,50,-43,127,-11,-37,83,-69, 
  /* [2][0][][] */ 58,-51,13,21,-56,74,-49,112,-97,-112,0,112,-6,-127,100,-115, 
  /* [3][0][][] */ 127,114,7,40,-105,-9,-55,-24,9,5,110,-55,-55,99,-59,-45, 
  /* [4][0][][] */ -6,-7,9,11,-29,31,-3,43,-79,-41,6,6,2,-127,21,8, 
  /* [5][0][][] */ 87,-41,-22,-11,-25,-127,-40,18,-16,16,-119,-19,24,-25,-4,32, 
  /* [6][0][][] */ -106,-71,-16,93,-40,-8,-47,12,-127,-94,-76,-30,14,52,19,98, 
  /* [7][0][][] */ 2,16,-77,61,41,-127,-28,42,14,-38,8,-9,-7,29,-41,10, 
  /* [8][0][][] */ 32,-48,-4,-8,15,30,-57,-57,-7,17,-67,11,-127,6,-5,20, 
  /* [9][0][][] */ 29,-63,75,127,1,14,-8,-71,117,-83,14,-20,-12,64,-70,28, 
  /* [10][0][][] */ -127,-63,-32,-42,87,40,38,67,76,-65,-63,23,60,-103,-96,77, 
  /* [11][0][][] */ 38,-21,-127,17,55,24,-21,41,-8,-30,-16,-7,0,22,-39,7, 
  /* [12][0][][] */ 93,-54,-6,8,-16,-64,-92,-52,52,-7,-127,-29,-71,-22,12,73, 
  /* [13][0][][] */ 66,-83,6,-37,81,-20,-116,-127,6,-50,-14,27,17,-25,-6,23, 
  /* [14][0][][] */ -66,24,-85,-42,87,-127,52,-64,55,48,-14,-103,12,81,-5,29, 
  /* [15][0][][] */ 29,-7,59,60,53,-49,-40,-10,24,-61,-81,-14,-127,-51,-12,38, 
  /* [16][0][][] */ -124,62,2,15,-11,79,48,69,-20,33,127,10,12,15,19,-47, 
  /* [17][0][][] */ -3,-11,-39,-27,-22,13,46,79,-14,127,-17,16,-6,83,51,-7, 
  /* [18][0][][] */ 9,127,-42,-12,14,-8,45,-58,44,105,-49,96,13,-46,29,-94, 
  /* [19][0][][] */ 0,-23,21,13,-1,44,-6,23,12,2,-40,-17,-127,6,-6,34, 
  /* [20][0][][] */ 114,-65,-3,-81,-30,30,18,-101,-66,12,-127,-55,27,20,62,-2, 
  /* [21][0][][] */ 55,10,127,53,-30,51,21,-9,-9,36,-22,-19,-16,68,15,-16, 
  /* [22][0][][] */ 25,11,33,22,-6,2,33,127,27,12,21,51,8,40,26,19, 
  /* [23][0][][] */ -33,31,-89,14,10,-127,20,45,-4,-12,-4,-9,-58,10,-11,42, 
  /* [24][0][][] */ 32,-46,2,-59,49,-6,-27,-2,36,41,67,103,-31,68,127,47, 
  /* [25][0][][] */ -127,-120,-51,21,30,29,24,-49,-54,-20,-103,21,-2,65,16,36, 
  /* [26][0][][] */ 16,-16,56,10,2,0,-51,72,-75,-56,-21,15,20,-127,43,-18, 
  /* [27][0][][] */ -101,46,-56,24,17,-3,12,29,37,-32,127,4,-27,19,-9,-8, 
  /* [28][0][][] */ -23,1,19,30,-3,-2,7,79,26,17,-27,-2,-127,-18,-6,41, 
  /* [29][0][][] */ -15,64,44,-37,43,-15,21,-25,-127,35,-39,14,8,33,-94,17, 
  /* [30][0][][] */ -9,0,-127,-28,20,-48,7,16,-26,-24,-3,-14,-37,-18,6,13, 
  /* [31][0][][] */ 127,-29,-90,15,46,2,-32,69,-13,5,-58,-32,22,3,-84,18, 
  /* [32][0][][] */ -127,26,20,31,30,86,13,34,33,-19,100,16,-35,17,-6,-20, 
  /* [33][0][][] */ 7,-4,127,-17,-54,39,17,-36,-6,3,-10,18,-8,24,29,10, 
  /* [34][0][][] */ -24,-22,-54,-109,36,9,5,-44,-33,-63,-36,-127,-10,-11,66,12, 
  /* [35][0][][] */ 5,-41,49,49,66,-29,7,-6,-102,44,-10,31,-17,127,-45,-38, 
  /* [36][0][][] */ -115,55,-29,-7,-10,38,26,88,-6,30,127,-16,-11,22,13,-31, 
  /* [37][0][][] */ -44,22,127,-38,-95,-77,34,-32,24,32,-1,7,-4,-70,70,16, 
  /* [38][0][][] */ 13,-3,-15,39,25,-51,-54,24,-5,6,70,-15,127,17,-17,11, 
  /* [39][0][][] */ -20,-32,-4,-34,-65,-99,70,127,-41,-24,9,-83,-14,67,72,62, 
  /* [40][0][][] */ 58,-9,-21,-17,-15,64,-20,7,20,4,23,-9,127,-1,-18,-6, 
  /* [41][0][][] */ -7,-2,-37,-127,12,8,-21,-52,-8,-27,28,-45,-6,-12,-15,39, 
  /* [42][0][][] */ 42,30,-7,107,-100,6,-80,-3,-72,-59,79,-80,-58,127,-49,2, 
  /* [43][0][][] */ 5,96,-31,127,18,29,39,-78,-52,69,-13,31,8,-44,50,30, 
  /* [44][0][][] */ -21,-35,-127,21,45,71,-32,48,-13,-21,27,-29,12,-29,-54,12, 
  /* [45][0][][] */ -7,14,-33,-127,-43,-19,46,-19,-29,19,-48,10,-14,-108,30,-17, 
  /* [46][0][][] */ 7,26,67,-23,23,14,-60,46,20,-57,-39,13,-3,127,62,-23, 
  /* [47][0][][] */ 18,-24,29,-52,-36,24,-69,47,-27,-48,16,30,-8,-127,46,15, 
  /* [48][0][][] */ 16,-23,19,-127,2,-18,-6,3,15,-34,9,-16,4,41,-10,49, 
  /* [49][0][][] */ 50,-45,1,107,93,-15,-12,60,-65,6,12,35,-3,44,127,4, 
  /* [50][0][][] */ -39,-44,65,-35,-8,127,-66,-108,55,-62,125,30,100,-25,11,-77, 
  /* [51][0][][] */ 20,41,3,14,21,-12,-44,20,40,1,-7,127,13,32,27,-47, 
  /* [52][0][][] */ -30,44,127,2,27,-34,4,-59,-18,-7,5,16,-13,81,-115,-28, 
  /* [53][0][][] */ -8,-22,-39,-127,-40,4,8,-48,-20,29,11,-12,3,-28,49,9, 
  /* [54][0][][] */ 20,13,-30,-53,22,13,-18,9,58,-10,11,-23,1,127,18,26, 
  /* [55][0][][] */ -11,-31,-27,-15,7,-44,-10,-127,2,-87,-19,2,-24,-68,-50,-16, 
  /* [56][0][][] */ 45,39,32,60,8,-28,7,127,18,-27,-5,-27,81,-19,-52,33, 
  /* [57][0][][] */ 73,-6,127,-14,-67,-44,-6,-27,21,29,-98,28,52,-53,62,12, 
  /* [58][0][][] */ 93,82,3,83,-127,-32,-15,42,-21,8,64,-43,-54,-43,-16,-64, 
  /* [59][0][][] */ 125,-49,-9,-2,-19,-23,-1,9,-32,20,-127,-14,5,-14,6,31, 
  /* [60][0][][] */ -127,42,-3,-6,12,11,17,19,10,14,89,9,-29,-12,17,-13, 
  /* [61][0][][] */ -108,82,23,23,28,-10,-81,-44,127,-104,78,-2,58,-36,-100,-61, 
  /* [62][0][][] */ -48,-25,-127,54,50,103,18,80,26,-74,34,-21,-85,-13,-87,-3, 
  /* [63][0][][] */ -40,16,127,-44,-56,-53,29,-18,10,27,12,18,-2,-35,59,17, 
  /* [64][0][][] */ 14,78,-9,34,47,5,99,-111,-9,127,10,-8,-6,-107,-13,57, 
  /* [65][0][][] */ 8,18,13,-18,78,13,17,-127,-39,-76,-26,-61,-17,-42,47,12, 
  /* [66][0][][] */ -127,8,-4,17,-42,33,25,-29,-64,-26,-77,61,65,26,46,82, 
  /* [67][0][][] */ -7,-39,8,127,18,5,-22,31,49,22,23,-5,-16,-38,-100,-35, 
  /* [68][0][][] */ 14,-4,-13,127,-44,-14,7,-21,-46,23,8,-23,-27,-49,-29,-43, 
  /* [69][0][][] */ 76,75,14,127,45,-7,67,-123,13,104,20,74,10,-35,33,-5, 
  /* [70][0][][] */ 29,-33,10,-94,127,-38,55,32,92,-25,65,-49,46,123,53,119, 
  /* [71][0][][] */ 12,55,11,88,49,-127,-34,103,40,-92,14,20,14,-55,-65,36, 
  /* [72][0][][] */ -127,-73,-1,50,19,41,-28,23,-54,-40,-88,44,44,29,-3,94, 
  /* [73][0][][] */ -3,-5,-6,83,26,-36,1,19,86,47,-2,23,50,127,-59,-41, 
  /* [74][0][][] */ 42,-53,30,-20,-18,12,20,-33,-31,-19,-98,17,-127,-12,32,26, 
  /* [75][0][][] */ -14,-7,-16,127,-28,10,5,-10,-59,24,-25,-15,7,-37,-23,-27, 
  /* [76][0][][] */ -7,-20,-5,41,29,9,-32,-127,18,-114,6,22,-33,-24,41,-38, 
  /* [77][0][][] */ 127,-25,16,56,-43,-6,-48,8,44,-15,-38,48,23,22,-60,31, 
  /* [78][0][][] */ -24,-14,47,-2,17,-10,-57,36,50,-24,-31,-34,14,127,39,-19, 
  /* [79][0][][] */ -1,22,52,22,50,57,-55,-52,17,-44,71,-16,127,-20,-38,-46, 
  /* [80][0][][] */ -125,-111,-82,127,-3,39,46,-19,-86,32,-89,17,59,-74,-2,55, 
  /* [81][0][][] */ 75,6,-81,38,127,99,-55,-32,-8,-113,-21,-88,-37,-11,-104,30, 
  /* [82][0][][] */ 92,126,-15,27,-127,-28,-75,-9,-67,-1,92,-61,-36,77,7,-22, 
  /* [83][0][][] */ 127,35,11,-20,4,-18,-14,26,38,13,77,-35,-52,-27,-16,-74, 
  /* [84][0][][] */ 18,-44,-69,-6,31,18,15,-127,-25,-24,26,3,-18,-10,-6,-33, 
  /* [85][0][][] */ -28,-10,-53,-61,-14,-27,57,91,-17,127,-9,-44,46,51,74,-15, 
  /* [86][0][][] */ 74,-20,-3,17,7,-24,10,-28,-6,0,-127,16,18,17,-16,23, 
  /* [87][0][][] */ -22,18,13,-27,-11,52,-37,47,-3,-31,25,6,11,-127,21,5, 
  /* [88][0][][] */ -10,1,-89,-50,50,21,-25,-127,2,-32,17,-16,-34,-2,32,-4, 
  /* [89][0][][] */ 27,-11,23,-127,28,12,-52,97,87,-77,20,-7,-16,47,44,48, 
  /* [90][0][][] */ -13,10,-35,55,100,-2,113,-114,87,127,-50,49,11,12,-36,-31, 
  /* [91][0][][] */ 29,-23,-38,-13,2,-127,-11,1,-1,-2,-52,4,33,-7,11,31, 
  /* [92][0][][] */ 28,16,127,67,36,20,-2,44,-22,36,-62,9,11,89,4,-21, 
  /* [93][0][][] */ 112,-34,-51,-21,-37,-58,-2,41,-29,39,-127,-2,-2,25,7,58, 
  /* [94][0][][] */ 22,-26,49,91,116,-39,-7,67,0,-13,-4,65,-5,127,-31,-80, 
  /* [95][0][][] */ -96,48,32,39,24,45,28,1,7,17,127,5,-9,24,-16,-18, 
};
const TfArray<4, int> tensor_dimension19 = { 4, { 96,1,1,16 } };
const TfArray<96, float> quant19_scale = { 96, { 0.00053144199773669243, 0.0010341861052438617, 0.00054158410057425499, 0.0027068278286606073, 0.0010137015487998724, 0.00052945222705602646, 0.00066000799415633082, 0.0019237914821133018, 0.0011857751524075866, 0.00038965867133811116, 0.0008077027159743011, 0.0018891533836722374, 0.0010637389495968819, 0.00041426505777053535, 0.0010944160167127848, 0.0011113181244581938, 0.00066079950192943215, 0.00069571647327393293, 0.0008921827538870275, 0.0027768653817474842, 0.0011141241993755102, 0.00055266619892790914, 0.0009323053527623415, 0.00072461360832676291, 0.00079886952880769968, 0.0011073870118707418, 0.0010114844189956784, 0.00055096263531595469, 0.002323538064956665, 0.0010688848560675979, 0.00072952668415382504, 0.00063974794466048479, 0.00040029536467045546, 0.0023468418512493372, 0.00065300706773996353, 0.0011322417994961143, 0.00034569393028505147, 0.00096816039877012372, 0.0017492045881226659, 0.00066491961479187012, 0.0020893826149404049, 0.00053902703803032637, 0.00065246224403381348, 0.00052129814866930246, 0.001205313834361732, 0.00075850530993193388, 0.00059452553978189826, 0.00069897528737783432, 0.0010053332662209868, 0.00083542836364358664, 0.0013425701763480902, 0.0031379119027405977, 0.00044316798448562622, 0.00072968058520928025, 0.00097833166364580393, 0.00038124163984321058, 0.0011502711568027735, 0.00072175310924649239, 0.00094316620379686356, 0.0012724276166409254, 0.00040230160811915994, 0.00082999787991866469, 0.0011987801408395171, 0.0015639757039025426, 0.00055151717970147729, 0.00078360334737226367, 0.0010345152113586664, 0.0013658584794029593, 0.00048994662938639522, 0.00044992603943683207, 0.00060977245448157191, 0.0012219715863466263, 0.00081134651554748416, 0.0010725052561610937, 0.00087896548211574554, 0.0012180235935375094, 0.00034085239167325199, 0.0010617987718433142, 0.00043371383799239993, 0.0015062734019011259, 0.0005462913541123271, 0.001367500051856041, 0.00069352117134258151, 0.0013693332439288497, 0.00086492206901311874, 0.0011264485074207187, 0.00076896278187632561, 0.0011142428265884519, 0.00046656807535327971, 0.0011145450407639146, 0.00052089791279286146, 0.0013689460465684533, 0.00038540994864888489, 0.00047106030979193747, 0.00079514773096889257, 0.00074784422758966684, } };
const TfArray<96, int> quant19_zero = { 96, { 0,0,0,0,0,0,0,0,0,0,0,0,0,0,0,0,0,0,0,0,0,0,0,0,0,0,0,0,0,0,0,0,0,0,0,0,0,0,0,0,0,0,0,0,0,0,0,0,0,0,0,0,0,0,0,0,0,0,0,0,0,0,0,0,0,0,0,0,0,0,0,0,0,0,0,0,0,0,0,0,0,0,0,0,0,0,0,0,0,0,0,0,0,0,0,0 } };
const TfLiteAffineQuantization quant19 = { (TfLiteFloatArray*)&quant19_scale, (TfLiteIntArray*)&quant19_zero, 0 };
const ALIGN(16) int32_t tensor_data20[16] = { -40006, 2638, 994, -8445, 1532, -7280, -10861, -42337, 6139, 27820, 30880, -8707, -2040, -21033, 41180, -43310, };
const TfArray<1, int> tensor_dimension20 = { 1, { 16 } };
const TfArray<16, float> quant20_scale = { 16, { 0.00059114786563441157, 0.00088464858708903193, 0.0009417789988219738, 0.0011491321492940187, 0.0006917659193277359, 0.0010477973846718669, 0.0012981964973732829, 0.0005826718988828361, 0.00078877730993553996, 0.00077010737732052803, 0.00081233156379312277, 0.00056677829707041383, 0.0011492554331198335, 0.0013159023365005851, 0.00047959067160263658, 0.00061302486574277282, } };
const TfArray<16, int> quant20_zero = { 16, { 0,0,0,0,0,0,0,0,0,0,0,0,0,0,0,0 } };
const TfLiteAffineQuantization quant20 = { (TfLiteFloatArray*)&quant20_scale, (TfLiteIntArray*)&quant20_zero, 0 };
const ALIGN(16) int8_t tensor_data21[16*1*1*48] = { 
  /* [0][0][][] */ -21,-1,-28,4,22,2,8,114,-61,19,44,-8,13,-15,-8,15,15,-18,-14,-11,64,-10,16,127,-24,91,1,-8,25,-14,26,-26,-13,50,23,-54,12,44,23,-9,-115,-22,10,42,38,30,-126,-46, 
  /* [1][0][][] */ -38,-3,16,17,-28,13,-3,53,-49,-32,4,-37,-20,-11,9,-6,-25,122,-7,14,11,3,-31,-19,27,-40,23,25,-30,-77,-37,20,-17,-8,30,-1,-8,-39,-1,14,-22,-27,127,12,6,-4,25,-9, 
  /* [2][0][][] */ -23,-10,-12,-34,-4,-65,9,-19,-1,12,14,28,15,13,-15,9,-2,-22,-28,-13,-7,2,-5,-127,-14,75,-12,7,1,-17,0,-3,-10,56,11,-6,20,8,29,4,-37,6,-21,-8,-1,-10,13,7, 
  /* [3][0][][] */ -7,31,7,-28,-2,-1,3,-2,-19,-4,2,41,-127,1,-6,-1,3,5,-19,-2,-32,9,7,17,-8,-13,3,24,-9,16,6,18,4,3,16,19,-9,24,42,4,13,7,22,-28,9,-5,3,15, 
  /* [4][0][][] */ 33,-35,10,12,19,28,27,-27,-29,-1,-15,-17,1,12,0,19,24,-12,-79,2,-5,14,9,70,2,-28,-1,45,10,-73,17,14,9,-36,35,-127,15,33,-3,20,-20,18,10,-26,-12,-18,14,2, 
  /* [5][0][][] */ 28,1,-19,57,-2,-5,11,25,0,-4,37,9,2,55,2,4,-22,18,26,0,7,4,-2,-27,0,-47,4,-18,-5,-5,4,6,63,-127,5,27,-17,-14,15,11,-90,58,18,-6,-5,-5,-98,-4, 
  /* [6][0][][] */ 25,3,3,5,-12,-4,0,-15,0,7,-4,7,-17,14,10,2,-2,-10,127,2,5,7,14,-39,3,4,24,-8,-15,2,-4,3,2,-16,30,-40,-3,-41,68,12,-3,-4,-7,7,-8,-1,9,-5, 
  /* [7][0][][] */ -43,-19,-7,34,-12,77,-4,51,-6,29,-11,127,81,-8,-13,0,-3,-23,-11,-12,-32,-4,-14,73,-2,-40,-54,-33,-9,-18,-8,-5,-1,5,-27,6,10,-59,98,-3,28,25,-65,-58,22,-7,-1,0, 
  /* [8][0][][] */ -52,-59,0,5,-7,3,6,30,-3,-73,-3,43,52,2,8,13,-7,60,-29,6,-48,23,-12,-15,-3,-5,0,41,-6,114,-16,27,-8,3,-17,-127,-114,64,30,37,19,-5,108,-20,3,31,24,28, 
  /* [9][0][][] */ -27,-4,2,26,14,-35,-2,1,52,-45,5,51,-51,-2,8,6,-1,15,-40,-27,45,8,-15,-17,0,2,45,-30,15,9,6,2,-13,20,74,-104,-7,-127,-93,13,-25,22,52,10,6,10,-14,-40, 
  /* [10][0][][] */ -27,-8,-39,-127,51,88,7,-7,3,33,19,12,55,-45,-28,27,38,-44,60,-41,30,-24,35,51,-52,-110,8,-35,49,38,41,-41,-35,-83,30,-11,20,-49,5,-33,-38,-65,-9,10,9,10,22,-34, 
  /* [11][0][][] */ 0,43,-3,69,31,-70,-80,-22,-4,69,-24,-7,-5,55,-9,-79,28,49,4,-7,-66,-101,14,5,10,-39,29,-18,58,-49,27,-93,41,-17,-44,-96,98,17,9,-127,2,71,92,-81,-3,-56,29,30, 
  /* [12][0][][] */ 119,-1,-17,9,-3,19,4,99,15,-9,-55,-20,0,17,-8,-5,-11,5,-8,-10,6,4,2,21,-4,18,0,8,-4,16,-5,-5,1,-59,-10,6,-18,-19,-25,0,-15,-77,1,-127,-54,-11,73,-5, 
  /* [13][0][][] */ 7,2,-2,5,6,-10,2,2,0,6,4,21,-3,5,7,2,6,0,7,0,9,-11,8,-5,1,1,18,127,11,-3,7,-4,5,-3,-37,16,6,-6,5,-13,-14,-1,0,4,-2,-3,-8,-11, 
  /* [14][0][][] */ 67,-27,45,-71,53,26,32,-100,-52,-59,-3,117,-66,-4,68,10,50,27,-49,67,24,7,83,-15,28,55,-33,-117,30,-43,59,39,-8,73,-127,-45,-33,49,85,9,-35,2,52,5,0,-1,14,-30, 
  /* [15][0][][] */ -2,-45,-78,-31,56,30,71,-56,-2,18,-8,-37,77,21,-95,61,53,51,80,-74,-96,-20,61,-18,-87,42,31,51,55,48,53,-50,28,52,98,127,-14,-102,-13,-39,88,60,118,-48,-6,-29,-11,65, 
};
const TfArray<4, int> tensor_dimension21 = { 4, { 16,1,1,48 } };
const TfArray<16, float> quant21_scale = { 16, { 0.025123784318566322, 0.037597563117742538, 0.040025606751441956, 0.048838116228580475, 0.029400050640106201, 0.044531386345624924, 0.055173348635435104, 0.024763554334640503, 0.033523034304380417, 0.032729562371969223, 0.034524090588092804, 0.024088077247142792, 0.048843353986740112, 0.055925846099853516, 0.020382603630423546, 0.026053557172417641, } };
const TfArray<16, int> quant21_zero = { 16, { 0,0,0,0,0,0,0,0,0,0,0,0,0,0,0,0 } };
const TfLiteAffineQuantization quant21 = { (TfLiteFloatArray*)&quant21_scale, (TfLiteIntArray*)&quant21_zero, 0 };
const ALIGN(16) int32_t tensor_data22[48] = { 4565, 37544, -1124, 44354, 4505, 133166, -1860, 51084, 7590, 30639, 29110, 3038, -2154, 34405, -1654, -2883, -299, 582, 1913, -2096, 98, -2979, 139, -22867, -4912, 42353, 131360, 99899, 2683, 2963, -2987, 91, 26980, -1418, 25878, 3454, 37941, 5634, 63930, 2196, -1664, 61527, 1678, 4627, 47259, 108, 3277, 50841, };
const TfArray<1, int> tensor_dimension22 = { 1, { 48 } };
const TfArray<48, float> quant22_scale = { 48, { 6.9732937845401466e-05, 4.5390454033622518e-05, 0.00016819614393170923, 5.2385486924322322e-05, 0.00014398476923815906, 5.8331028412794694e-05, 0.00016345598851330578, 0.00011281803017482162, 5.5752880143700168e-05, 4.3100819311803207e-05, 5.5420743592549115e-05, 9.0802815975621343e-05, 4.8846424760995433e-05, 4.2852665501413867e-05, 0.00016542577941436321, 0.00018607413221616298, 0.00017789265257306397, 6.531149847432971e-05, 0.0001331455132458359, 0.00015695374167989939, 9.9720644357148558e-05, 0.00019060060731135309, 0.00011082930723205209, 0.00015154921857174486, 0.00011689380335155874, 0.00010796501010190696, 3.1389005016535521e-05, 7.1165035478770733e-05, 0.00012551306281238794, 0.00012763931590598077, 0.00011560644634300843, 0.00014715977886226028, 5.2192168368492275e-05, 0.00019995836191810668, 3.1698458769824356e-05, 5.059124669060111e-05, 0.0001549451844766736, 7.6411502959672362e-05, 8.7226340838242322e-05, 9.5302544650621712e-05, 0.00014574297529179603, 9.5537878223694861e-05, 6.9421985244844109e-05, 7.8117940574884415e-05, 2.7978110665571876e-05, 0.00015755752974655479, 8.978848927654326e-05, 2.6851361326407641e-05, } };
const TfArray<48, int> quant22_zero = { 48, { 0,0,0,0,0,0,0,0,0,0,0,0,0,0,0,0,0,0,0,0,0,0,0,0,0,0,0,0,0,0,0,0,0,0,0,0,0,0,0,0,0,0,0,0,0,0,0,0 } };
const TfLiteAffineQuantization quant22 = { (TfLiteFloatArray*)&quant22_scale, (TfLiteIntArray*)&quant22_zero, 0 };
const ALIGN(16) int8_t tensor_data23[1*3*3*48] = { 
  /* [0][0][][] */ 69,-93,97,71,53,-34,107,-65,61,-88,-79,48,51,-42,-72,-89,101,78,48,78,66,-73,-82,51,-31,-40,-65,-64,-67,62,-62,-113,-13,41,68,64,-65,53,-49,-23,51,-73,57,62,-93,10,76,-33, 82,-96,127,85,-77,-68,-56,-84,96,-103,-64,75,79,-110,-95,93,-39,94,82,127,83,-114,52,72,-51,-77,-70,-80,56,80,-30,-127,-85,79,80,83,-83,81,-82,-16,76,-95,82,89,-73,-127,93,-102, 35,-47,70,38,18,-41,-47,-39,42,-32,6,34,28,-80,-55,0,-55,36,34,69,33,-54,31,25,-28,-46,-45,-23,32,30,88,-89,-86,44,35,34,-30,39,-38,-9,40,-42,35,43,-6,-9,37,-71, 
